{"learner":{"attributes":{"scikit_learn":"{\"_estimator_type\": \"classifier\"}"},"feature_names":["income","name_email_similarity","current_address_months_count","customer_age","days_since_request","intended_balcon_amount","zip_count_4w","velocity_6h","velocity_24h","velocity_4w","bank_branch_count_8w","date_of_birth_distinct_emails_4w","credit_risk_score","email_is_free","phone_home_valid","phone_mobile_valid","has_other_cards","foreign_request","session_length_in_minutes","keep_alive_session","device_distinct_emails_8w","source_is_internet_not_teleapp","bank_months_count_provided","prev_address_months_count_provided","current_address_months_count_provided","proposed_credit_limit_1500.0","proposed_credit_limit_200.0","proposed_credit_limit_500.0","proposed_credit_limit_other","payment_type_AB","payment_type_AC","payment_type_AD","payment_type_AE","employment_status_CB","employment_status_CC","employment_status_CD","employment_status_CE","employment_status_CF","employment_status_CG","housing_status_BB","housing_status_BC","housing_status_BD","housing_status_BE","housing_status_BF","housing_status_BG","device_os_macintosh","device_os_other","device_os_windows","device_os_x11"],"feature_types":["float","float","float","float","float","float","float","float","float","float","float","float","float","int","int","int","int","int","float","int","int","int","int","int","int","float","float","float","float","float","float","float","float","float","float","float","float","float","float","float","float","float","float","float","float","float","float","float","float"],"gradient_booster":{"model":{"gbtree_model_param":{"num_parallel_tree":"1","num_trees":"674"},"iteration_indptr":[0,1,2,3,4,5,6,7,8,9,10,11,12,13,14,15,16,17,18,19,20,21,22,23,24,25,26,27,28,29,30,31,32,33,34,35,36,37,38,39,40,41,42,43,44,45,46,47,48,49,50,51,52,53,54,55,56,57,58,59,60,61,62,63,64,65,66,67,68,69,70,71,72,73,74,75,76,77,78,79,80,81,82,83,84,85,86,87,88,89,90,91,92,93,94,95,96,97,98,99,100,101,102,103,104,105,106,107,108,109,110,111,112,113,114,115,116,117,118,119,120,121,122,123,124,125,126,127,128,129,130,131,132,133,134,135,136,137,138,139,140,141,142,143,144,145,146,147,148,149,150,151,152,153,154,155,156,157,158,159,160,161,162,163,164,165,166,167,168,169,170,171,172,173,174,175,176,177,178,179,180,181,182,183,184,185,186,187,188,189,190,191,192,193,194,195,196,197,198,199,200,201,202,203,204,205,206,207,208,209,210,211,212,213,214,215,216,217,218,219,220,221,222,223,224,225,226,227,228,229,230,231,232,233,234,235,236,237,238,239,240,241,242,243,244,245,246,247,248,249,250,251,252,253,254,255,256,257,258,259,260,261,262,263,264,265,266,267,268,269,270,271,272,273,274,275,276,277,278,279,280,281,282,283,284,285,286,287,288,289,290,291,292,293,294,295,296,297,298,299,300,301,302,303,304,305,306,307,308,309,310,311,312,313,314,315,316,317,318,319,320,321,322,323,324,325,326,327,328,329,330,331,332,333,334,335,336,337,338,339,340,341,342,343,344,345,346,347,348,349,350,351,352,353,354,355,356,357,358,359,360,361,362,363,364,365,366,367,368,369,370,371,372,373,374,375,376,377,378,379,380,381,382,383,384,385,386,387,388,389,390,391,392,393,394,395,396,397,398,399,400,401,402,403,404,405,406,407,408,409,410,411,412,413,414,415,416,417,418,419,420,421,422,423,424,425,426,427,428,429,430,431,432,433,434,435,436,437,438,439,440,441,442,443,444,445,446,447,448,449,450,451,452,453,454,455,456,457,458,459,460,461,462,463,464,465,466,467,468,469,470,471,472,473,474,475,476,477,478,479,480,481,482,483,484,485,486,487,488,489,490,491,492,493,494,495,496,497,498,499,500,501,502,503,504,505,506,507,508,509,510,511,512,513,514,515,516,517,518,519,520,521,522,523,524,525,526,527,528,529,530,531,532,533,534,535,536,537,538,539,540,541,542,543,544,545,546,547,548,549,550,551,552,553,554,555,556,557,558,559,560,561,562,563,564,565,566,567,568,569,570,571,572,573,574,575,576,577,578,579,580,581,582,583,584,585,586,587,588,589,590,591,592,593,594,595,596,597,598,599,600,601,602,603,604,605,606,607,608,609,610,611,612,613,614,615,616,617,618,619,620,621,622,623,624,625,626,627,628,629,630,631,632,633,634,635,636,637,638,639,640,641,642,643,644,645,646,647,648,649,650,651,652,653,654,655,656,657,658,659,660,661,662,663,664,665,666,667,668,669,670,671,672,673,674],"tree_info":[0,0,0,0,0,0,0,0,0,0,0,0,0,0,0,0,0,0,0,0,0,0,0,0,0,0,0,0,0,0,0,0,0,0,0,0,0,0,0,0,0,0,0,0,0,0,0,0,0,0,0,0,0,0,0,0,0,0,0,0,0,0,0,0,0,0,0,0,0,0,0,0,0,0,0,0,0,0,0,0,0,0,0,0,0,0,0,0,0,0,0,0,0,0,0,0,0,0,0,0,0,0,0,0,0,0,0,0,0,0,0,0,0,0,0,0,0,0,0,0,0,0,0,0,0,0,0,0,0,0,0,0,0,0,0,0,0,0,0,0,0,0,0,0,0,0,0,0,0,0,0,0,0,0,0,0,0,0,0,0,0,0,0,0,0,0,0,0,0,0,0,0,0,0,0,0,0,0,0,0,0,0,0,0,0,0,0,0,0,0,0,0,0,0,0,0,0,0,0,0,0,0,0,0,0,0,0,0,0,0,0,0,0,0,0,0,0,0,0,0,0,0,0,0,0,0,0,0,0,0,0,0,0,0,0,0,0,0,0,0,0,0,0,0,0,0,0,0,0,0,0,0,0,0,0,0,0,0,0,0,0,0,0,0,0,0,0,0,0,0,0,0,0,0,0,0,0,0,0,0,0,0,0,0,0,0,0,0,0,0,0,0,0,0,0,0,0,0,0,0,0,0,0,0,0,0,0,0,0,0,0,0,0,0,0,0,0,0,0,0,0,0,0,0,0,0,0,0,0,0,0,0,0,0,0,0,0,0,0,0,0,0,0,0,0,0,0,0,0,0,0,0,0,0,0,0,0,0,0,0,0,0,0,0,0,0,0,0,0,0,0,0,0,0,0,0,0,0,0,0,0,0,0,0,0,0,0,0,0,0,0,0,0,0,0,0,0,0,0,0,0,0,0,0,0,0,0,0,0,0,0,0,0,0,0,0,0,0,0,0,0,0,0,0,0,0,0,0,0,0,0,0,0,0,0,0,0,0,0,0,0,0,0,0,0,0,0,0,0,0,0,0,0,0,0,0,0,0,0,0,0,0,0,0,0,0,0,0,0,0,0,0,0,0,0,0,0,0,0,0,0,0,0,0,0,0,0,0,0,0,0,0,0,0,0,0,0,0,0,0,0,0,0,0,0,0,0,0,0,0,0,0,0,0,0,0,0,0,0,0,0,0,0,0,0,0,0,0,0,0,0,0,0,0,0,0,0,0,0,0,0,0,0,0,0,0,0,0,0,0,0,0,0,0,0,0,0,0,0,0,0,0,0,0,0,0,0,0,0,0,0,0,0,0,0,0,0,0,0,0,0,0,0,0,0,0,0,0,0,0,0,0,0,0,0,0,0,0,0,0,0,0,0,0,0,0,0,0,0,0,0,0,0,0,0,0,0,0,0,0,0,0,0,0,0,0,0,0,0,0,0,0,0,0,0,0,0,0,0,0,0,0,0,0,0,0,0,0,0,0,0,0,0,0,0,0,0,0,0,0,0,0,0,0,0,0,0,0,0,0,0,0,0,0],"trees":[{"base_weights":[-7.4741125E-1,-9.2959815E-1,-2.72142E-1,-7.9166956E-2,-6.1276134E-2,-5.7388622E-2,1.7081421E-3],"categories":[],"categories_nodes":[],"categories_segments":[],"categories_sizes":[],"default_left":[0,0,0,0,0,0,0],"id":0,"left_children":[1,3,5,-1,-1,-1,-1],"loss_changes":[8.95368E3,1.0516641E3,4.169961E3,0E0,0E0,0E0,0E0],"parents":[2147483647,0,0,1,1,2,2],"right_children":[2,4,6,-1,-1,-1,-1],"split_conditions":[1E0,-4.5454547E-2,-7.272727E-2,-7.9166956E-2,-6.1276134E-2,-5.7388622E-2,1.7081421E-3],"split_indices":[47,2,2,0,0,0,0],"split_type":[0,0,0,0,0,0,0],"sum_hessian":[1.0342498E5,7.475809E4,2.8666883E4,3.52432E4,3.95149E4,1.07235E4,1.7943383E4],"tree_param":{"num_deleted":"0","num_feature":"49","num_nodes":"7","size_leaf_vector":"1"}},{"base_weights":[-7.2251034E-1,-9.075285E-1,-2.5781372E-1,-7.2556496E-2,-5.116862E-2,-3.573783E-2,2.8325303E-2],"categories":[],"categories_nodes":[],"categories_segments":[],"categories_sizes":[],"default_left":[0,0,0,0,0,0,0],"id":1,"left_children":[1,3,5,-1,-1,-1,-1],"loss_changes":[8.538305E3,9.519531E2,3.93502E3,0E0,0E0,0E0,0E0],"parents":[2147483647,0,0,1,1,2,2],"right_children":[2,4,6,-1,-1,-1,-1],"split_conditions":[1E0,6E-1,6E-1,-7.2556496E-2,-5.116862E-2,-3.573783E-2,2.8325303E-2],"split_indices":[47,0,0,0,0,0,0],"split_type":[0,0,0,0,0,0,0],"sum_hessian":[9.9326086E4,7.103435E4,2.829174E4,5.608978E4,1.4944568E4,2.1050193E4,7.241548E3],"tree_param":{"num_deleted":"0","num_feature":"49","num_nodes":"7","size_leaf_vector":"1"}},{"base_weights":[-6.943142E-1,-8.8251275E-1,-2.378327E-1,-7.674241E-2,-5.742579E-2,-5.614519E-2,2.1385746E-3],"categories":[],"categories_nodes":[],"categories_segments":[],"categories_sizes":[],"default_left":[0,0,0,0,0,0,0],"id":2,"left_children":[1,3,5,-1,-1,-1,-1],"loss_changes":[8.199176E3,1.1034492E3,3.7933643E3,0E0,0E0,0E0,0E0],"parents":[2147483647,0,0,1,1,2,2],"right_children":[2,4,6,-1,-1,-1,-1],"split_conditions":[1E0,-6.363636E-2,-1E-1,-7.674241E-2,-5.742579E-2,-5.614519E-2,2.1385746E-3],"split_indices":[47,2,2,0,0,0,0],"split_type":[0,0,0,0,0,0,0],"sum_hessian":[9.545445E4,6.758225E4,2.78722E4,3.0622398E4,3.6959855E4,9.546641E3,1.8325559E4],"tree_param":{"num_deleted":"0","num_feature":"49","num_nodes":"7","size_leaf_vector":"1"}},{"base_weights":[-6.7136365E-1,-8.614761E-1,-2.27478E-1,-6.728473E-2,-2.6435098E-2,-3.285916E-2,6.443124E-2],"categories":[],"categories_nodes":[],"categories_segments":[],"categories_sizes":[],"default_left":[0,0,0,0,0,0,0],"id":3,"left_children":[1,3,5,-1,-1,-1,-1],"loss_changes":[7.745676E3,1.1633125E3,6.3079346E3,0E0,0E0,0E0,0E0],"parents":[2147483647,0,0,1,1,2,2],"right_children":[2,4,6,-1,-1,-1,-1],"split_conditions":[1E0,1.2083334E0,1.0833334E0,-6.728473E-2,-2.6435098E-2,-3.285916E-2,6.443124E-2],"split_indices":[47,12,12,0,0,0,0],"split_type":[0,0,0,0,0,0,0],"sum_hessian":[9.179948E4,6.4265645E4,2.7533836E4,6.0051676E4,4.213968E3,2.3067807E4,4.4660293E3],"tree_param":{"num_deleted":"0","num_feature":"49","num_nodes":"7","size_leaf_vector":"1"}},{"base_weights":[-6.469461E-1,-8.383529E-1,-2.1592844E-1,-4.9534917E-2,-6.971642E-2,7.4209616E-2,-2.404881E-2],"categories":[],"categories_nodes":[],"categories_segments":[],"categories_sizes":[],"default_left":[0,0,0,0,0,0,0],"id":4,"left_children":[1,3,5,-1,-1,-1,-1],"loss_changes":[7.2854453E3,9.861328E2,3.4337283E3,0E0,0E0,0E0,0E0],"parents":[2147483647,0,0,1,1,2,2],"right_children":[2,4,6,-1,-1,-1,-1],"split_conditions":[1E0,-6.5049684E-1,-8.5714287E-1,-4.9534917E-2,-6.971642E-2,7.4209616E-2,-2.404881E-2],"split_indices":[47,1,11,0,0,0,0],"split_type":[0,0,0,0,0,0,0],"sum_hessian":[8.832063E4,6.1153883E4,2.716675E4,2.0754295E4,4.039959E4,2.1647903E3,2.5001959E4],"tree_param":{"num_deleted":"0","num_feature":"49","num_nodes":"7","size_leaf_vector":"1"}},{"base_weights":[-6.2397265E-1,-8.943179E-1,-4.271792E-1,-6.8516776E-2,-1.3813492E-2,-4.4737868E-2,9.639596E-3],"categories":[],"categories_nodes":[],"categories_segments":[],"categories_sizes":[],"default_left":[0,0,0,0,0,0,0],"id":5,"left_children":[1,3,5,-1,-1,-1,-1],"loss_changes":[4.524176E3,4.8804492E2,4.6372334E3,0E0,0E0,0E0,0E0],"parents":[2147483647,0,0,1,1,2,2],"right_children":[2,4,6,-1,-1,-1,-1],"split_conditions":[-6.363636E-2,2E0,6E-1,-6.8516776E-2,-1.3813492E-2,-4.4737868E-2,9.639596E-3],"split_indices":[2,20,0,0,0,0,0],"split_type":[0,0,0,0,0,0,0],"sum_hessian":[8.509922E4,3.5835168E4,4.926405E4,3.4887145E4,9.4802637E2,3.7758258E4,1.1505794E4],"tree_param":{"num_deleted":"0","num_feature":"49","num_nodes":"7","size_leaf_vector":"1"}},{"base_weights":[-6.000033E-1,-6.82405E-1,5.189652E-1,7.327516E-3,-5.4595575E-2,9.919058E-2,1.4044535E-2],"categories":[],"categories_nodes":[],"categories_segments":[],"categories_sizes":[],"default_left":[0,0,0,0,0,0,0],"id":6,"left_children":[1,3,5,-1,-1,-1,-1],"loss_changes":[7.5737285E3,2.7173086E3,1.5000709E3,0E0,0E0,0E0,0E0],"parents":[2147483647,0,0,1,1,2,2],"right_children":[2,4,6,-1,-1,-1,-1],"split_conditions":[1.34375E0,-8.5714287E-1,-6.5049684E-1,7.327516E-3,-5.4595575E-2,9.919058E-2,1.4044535E-2],"split_indices":[12,11,1,0,0,0,0],"split_type":[0,0,0,0,0,0,0],"sum_hessian":[8.209176E4,7.6464734E4,5.627021E3,4.216569E3,7.224817E4,1.6353677E3,3.991653E3],"tree_param":{"num_deleted":"0","num_feature":"49","num_nodes":"7","size_leaf_vector":"1"}},{"base_weights":[-5.7499456E-1,-7.0769894E-1,-7.1196064E-2,-6.044014E-2,-2.7351923E-2,1.3402509E-2,-4.51316E-2],"categories":[],"categories_nodes":[],"categories_segments":[],"categories_sizes":[],"default_left":[0,0,0,0,0,0,0],"id":7,"left_children":[1,3,5,-1,-1,-1,-1],"loss_changes":[5.2996406E3,2.1099355E3,2.193959E3,0E0,0E0,0E0,0E0],"parents":[2147483647,0,0,1,1,2,2],"right_children":[2,4,6,-1,-1,-1,-1],"split_conditions":[1E0,6E-1,1E0,-6.044014E-2,-2.7351923E-2,1.3402509E-2,-4.51316E-2],"split_indices":[3,0,39,0,0,0,0],"split_type":[0,0,0,0,0,0,0],"sum_hessian":[7.926676E4,6.273725E4,1.652951E4,4.8766598E4,1.3970653E4,1.1241385E4,5.288126E3],"tree_param":{"num_deleted":"0","num_feature":"49","num_nodes":"7","size_leaf_vector":"1"}},{"base_weights":[-5.4682046E-1,-7.6267993E-1,-8.889227E-2,-6.978546E-2,-4.6635266E-2,-4.9641125E-2,1.1751144E-2],"categories":[],"categories_nodes":[],"categories_segments":[],"categories_sizes":[],"default_left":[0,0,0,0,0,0,0],"id":8,"left_children":[1,3,5,-1,-1,-1,-1],"loss_changes":[7.574129E3,1.2252715E3,3.457092E3,0E0,0E0,0E0,0E0],"parents":[2147483647,0,0,1,1,2,2],"right_children":[2,4,6,-1,-1,-1,-1],"split_conditions":[1E0,-4.5454547E-2,-1.2727273E-1,-6.978546E-2,-4.6635266E-2,-4.9641125E-2,1.1751144E-2],"split_indices":[47,2,2,0,0,0,0],"split_type":[0,0,0,0,0,0,0],"sum_hessian":[7.662075E4,5.2069453E4,2.45513E4,2.3738885E4,2.8330566E4,7.360458E3,1.7190842E4],"tree_param":{"num_deleted":"0","num_feature":"49","num_nodes":"7","size_leaf_vector":"1"}},{"base_weights":[-5.274948E-1,-6.4955705E-1,2.4486943E-1,-5.963308E-2,-2.3875345E-2,-2.0962607E-2,6.1058756E-2],"categories":[],"categories_nodes":[],"categories_segments":[],"categories_sizes":[],"default_left":[0,0,0,0,0,0,0],"id":9,"left_children":[1,3,5,-1,-1,-1,-1],"loss_changes":[6.979676E3,3.0789414E3,3.0195933E3,0E0,0E0,0E0,0E0],"parents":[2147483647,0,0,1,1,2,2],"right_children":[2,4,6,-1,-1,-1,-1],"split_conditions":[1.03125E0,1E0,1E0,-5.963308E-2,-2.3875345E-2,-2.0962607E-2,6.1058756E-2],"split_indices":[12,47,47,0,0,0,0],"split_type":[0,0,0,0,0,0,0],"sum_hessian":[7.400718E4,6.39088E4,1.009838E4,4.4388676E4,1.9520123E4,5.259032E3,4.839348E3],"tree_param":{"num_deleted":"0","num_feature":"49","num_nodes":"7","size_leaf_vector":"1"}},{"base_weights":[-5.0713736E-1,-2.1843605E-1,-7.404517E-1,4.942003E-2,-2.6392141E-2,-6.919963E-2,-4.535573E-2],"categories":[],"categories_nodes":[],"categories_segments":[],"categories_sizes":[],"default_left":[0,0,0,0,0,0,0],"id":10,"left_children":[1,3,5,-1,-1,-1,-1],"loss_changes":[4.8288555E3,3.757066E3,9.750371E2,0E0,0E0,0E0,0E0],"parents":[2147483647,0,0,1,1,2,2],"right_children":[2,4,6,-1,-1,-1,-1],"split_conditions":[1E0,-7.1428573E-1,-6.363636E-2,4.942003E-2,-2.6392141E-2,-6.919963E-2,-4.535573E-2],"split_indices":[19,11,2,0,0,0,0],"split_type":[0,0,0,0,0,0,0],"sum_hessian":[7.170328E4,3.205636E4,3.964692E4,4.227184E3,2.7829174E4,1.6899166E4,2.2747756E4],"tree_param":{"num_deleted":"0","num_feature":"49","num_nodes":"7","size_leaf_vector":"1"}},{"base_weights":[-4.8314744E-1,-7.0598644E-1,-5.0141588E-2,-4.5486033E-2,-7.28447E-2,-9.278418E-3,1.3473679E-1],"categories":[],"categories_nodes":[],"categories_segments":[],"categories_sizes":[],"default_left":[0,0,0,0,0,0,0],"id":11,"left_children":[1,3,5,-1,-1,-1,-1],"loss_changes":[6.705865E3,1.2053359E3,3.2119321E3,0E0,0E0,0E0,0E0],"parents":[2147483647,0,0,1,1,2,2],"right_children":[2,4,6,-1,-1,-1,-1],"split_conditions":[1E0,1E0,1E0,-4.5486033E-2,-7.28447E-2,-9.278418E-3,1.3473679E-1],"split_indices":[47,23,28,0,0,0,0],"split_type":[0,0,0,0,0,0,0],"sum_hessian":[6.949129E4,4.58758E4,2.3615492E4,3.3385605E4,1.2490196E4,2.2719662E4,8.9583136E2],"tree_param":{"num_deleted":"0","num_feature":"49","num_nodes":"7","size_leaf_vector":"1"}},{"base_weights":[-4.5992938E-1,-5.9450024E-1,2.2659266E-1,-5.5694222E-2,-2.1015095E-2,-1.982923E-2,5.4485578E-2],"categories":[],"categories_nodes":[],"categories_segments":[],"categories_sizes":[],"default_left":[0,0,0,0,0,0,0],"id":12,"left_children":[1,3,5,-1,-1,-1,-1],"loss_changes":[6.2328213E3,2.622957E3,2.7168682E3,0E0,0E0,0E0,0E0],"parents":[2147483647,0,0,1,1,2,2],"right_children":[2,4,6,-1,-1,-1,-1],"split_conditions":[9.583333E-1,1E0,1E0,-5.5694222E-2,-2.1015095E-2,-1.982923E-2,5.4485578E-2],"split_indices":[12,47,47,0,0,0,0],"split_type":[0,0,0,0,0,0,0],"sum_hessian":[6.7440516E4,5.638865E4,1.1051864E4,3.831976E4,1.8068887E4,5.577939E3,5.473925E3],"tree_param":{"num_deleted":"0","num_feature":"49","num_nodes":"7","size_leaf_vector":"1"}},{"base_weights":[-4.3867326E-1,-1.3993037E-1,-6.897178E-1,-2.664481E-2,3.3624537E-2,-5.7984628E-2,-2.7122289E-2],"categories":[],"categories_nodes":[],"categories_segments":[],"categories_sizes":[],"default_left":[0,0,0,0,0,0,0],"id":13,"left_children":[1,3,5,-1,-1,-1,-1],"loss_changes":[4.9144053E3,3.7940886E3,9.717207E2,0E0,0E0,0E0,0E0],"parents":[2147483647,0,0,1,1,2,2],"right_children":[2,4,6,-1,-1,-1,-1],"split_conditions":[1E0,6E-1,1E0,-2.664481E-2,3.3624537E-2,-5.7984628E-2,-2.7122289E-2],"split_indices":[19,0,3,0,0,0,0],"split_type":[0,0,0,0,0,0,0],"sum_hessian":[6.5530176E4,2.9929572E4,3.56006E4,2.1912416E4,8.0171562E3,2.8373555E4,7.227049E3],"tree_param":{"num_deleted":"0","num_feature":"49","num_nodes":"7","size_leaf_vector":"1"}},{"base_weights":[-4.1848326E-1,-5.3603244E-1,3.7867448E-1,-2.2061814E-2,-5.5730883E-2,6.644309E-2,-8.476967E-3],"categories":[],"categories_nodes":[],"categories_segments":[],"categories_sizes":[],"default_left":[0,0,0,0,0,0,0],"id":14,"left_children":[1,3,5,-1,-1,-1,-1],"loss_changes":[5.9755293E3,2.7801992E3,2.045665E3,0E0,0E0,0E0,0E0],"parents":[2147483647,0,0,1,1,2,2],"right_children":[2,4,6,-1,-1,-1,-1],"split_conditions":[1.125E0,1E0,1E0,-2.2061814E-2,-5.5730883E-2,6.644309E-2,-8.476967E-3],"split_indices":[12,19,19,0,0,0,0],"split_type":[0,0,0,0,0,0,0],"sum_hessian":[6.3737785E4,5.5549684E4,8.1881016E3,2.5631129E4,2.9918555E4,4.0264453E3,4.1616562E3],"tree_param":{"num_deleted":"0","num_feature":"49","num_nodes":"7","size_leaf_vector":"1"}},{"base_weights":[-3.9766392E-1,-5.49095E-1,1.1186707E-1,-5.0229695E-2,-1.2056102E-2,3.681969E-2,-2.2631697E-2],"categories":[],"categories_nodes":[],"categories_segments":[],"categories_sizes":[],"default_left":[0,0,0,0,0,0,0],"id":15,"left_children":[1,3,5,-1,-1,-1,-1],"loss_changes":[4.7911367E3,2.2412402E3,2.2330195E3,0E0,0E0,0E0,0E0],"parents":[2147483647,0,0,1,1,2,2],"right_children":[2,4,6,-1,-1,-1,-1],"split_conditions":[1E0,6E-1,1E0,-5.0229695E-2,-1.2056102E-2,3.681969E-2,-2.2631697E-2],"split_indices":[3,0,19,0,0,0,0],"split_type":[0,0,0,0,0,0,0],"sum_hessian":[6.2076504E4,4.785374E4,1.4222764E4,3.650634E4,1.1347401E4,7.420462E3,6.802302E3],"tree_param":{"num_deleted":"0","num_feature":"49","num_nodes":"7","size_leaf_vector":"1"}},{"base_weights":[-3.7625661E-1,-6.149779E-1,4.0803246E-2,-2.6782475E-2,-5.633758E-2,4.8201945E-2,-1.5231547E-2],"categories":[],"categories_nodes":[],"categories_segments":[],"categories_sizes":[],"default_left":[0,0,0,0,0,0,0],"id":16,"left_children":[1,3,5,-1,-1,-1,-1],"loss_changes":[6.027873E3,1.349583E3,3.237875E3,0E0,0E0,0E0,0E0],"parents":[2147483647,0,0,1,1,2,2],"right_children":[2,4,6,-1,-1,-1,-1],"split_conditions":[1E0,-6.5049684E-1,-8.235188E-1,-2.6782475E-2,-5.633758E-2,4.8201945E-2,-1.5231547E-2],"split_indices":[47,1,1,0,0,0,0],"split_type":[0,0,0,0,0,0,0],"sum_hessian":[6.0531957E4,3.8493742E4,2.2038213E4,1.3315946E4,2.5177797E4,6.3502617E3,1.5687951E4],"tree_param":{"num_deleted":"0","num_feature":"49","num_nodes":"7","size_leaf_vector":"1"}},{"base_weights":[-3.6352944E-1,-5.968372E-1,2.7630595E-2,-6.22195E-2,-3.1906933E-2,2.602471E-2,-2.9445264E-2],"categories":[],"categories_nodes":[],"categories_segments":[],"categories_sizes":[],"default_left":[0,0,0,0,0,0,0],"id":17,"left_children":[1,3,5,-1,-1,-1,-1],"loss_changes":[5.387985E3,1.4719053E3,2.9628916E3,0E0,0E0,0E0,0E0],"parents":[2147483647,0,0,1,1,2,2],"right_children":[2,4,6,-1,-1,-1,-1],"split_conditions":[1E0,-6.363636E-2,1E0,-6.22195E-2,-3.1906933E-2,2.602471E-2,-2.9445264E-2],"split_indices":[47,2,14,0,0,0,0],"split_type":[0,0,0,0,0,0,0],"sum_hessian":[5.9027688E4,3.6971023E4,2.2056662E4,1.5663493E4,2.1307531E4,1.2533395E4,9.523268E3],"tree_param":{"num_deleted":"0","num_feature":"49","num_nodes":"7","size_leaf_vector":"1"}},{"base_weights":[-3.413208E-1,-5.085094E-1,2.218343E-1,-1.3553966E-2,-4.9093198E-2,4.1172653E-2,-4.740576E-2],"categories":[],"categories_nodes":[],"categories_segments":[],"categories_sizes":[],"default_left":[0,0,0,0,0,0,0],"id":18,"left_children":[1,3,5,-1,-1,-1,-1],"loss_changes":[5.4349717E3,2.1296484E3,3.6959612E3,0E0,0E0,0E0,0E0],"parents":[2147483647,0,0,1,1,2,2],"right_children":[2,4,6,-1,-1,-1,-1],"split_conditions":[8.020833E-1,-8.235188E-1,1E0,-1.3553966E-2,-4.9093198E-2,4.1172653E-2,-4.740576E-2],"split_indices":[12,1,16,0,0,0,0],"split_type":[0,0,0,0,0,0,0],"sum_hessian":[5.770285E4,4.44944E4,1.3208455E4,1.3722325E4,3.0772074E4,9.552465E3,3.6559897E3],"tree_param":{"num_deleted":"0","num_feature":"49","num_nodes":"7","size_leaf_vector":"1"}},{"base_weights":[-3.2507762E-1,-6.917125E-1,-9.839934E-2,-3.6759738E-2,-6.394114E-2,-2.172593E-2,3.6741886E-2],"categories":[],"categories_nodes":[],"categories_segments":[],"categories_sizes":[],"default_left":[0,0,0,0,0,0,0],"id":19,"left_children":[1,3,5,-1,-1,-1,-1],"loss_changes":[4.6931714E3,6.953662E2,3.9300557E3,0E0,0E0,0E0,0E0],"parents":[2147483647,0,0,1,1,2,2],"right_children":[2,4,6,-1,-1,-1,-1],"split_conditions":[-6.363636E-2,1E0,1E0,-3.6759738E-2,-6.394114E-2,-2.172593E-2,3.6741886E-2],"split_indices":[2,23,30,0,0,0,0],"split_type":[0,0,0,0,0,0,0],"sum_hessian":[5.646884E4,2.1566365E4,3.4902477E4,9.588794E3,1.1977571E4,2.6342445E4,8.560029E3],"tree_param":{"num_deleted":"0","num_feature":"49","num_nodes":"7","size_leaf_vector":"1"}},{"base_weights":[-3.0775625E-1,-5.4386675E-1,6.6838056E-2,-2.3957219E-2,-5.509897E-2,-2.3067432E-2,3.3173848E-2],"categories":[],"categories_nodes":[],"categories_segments":[],"categories_sizes":[],"default_left":[0,0,0,0,0,0,0],"id":20,"left_children":[1,3,5,-1,-1,-1,-1],"loss_changes":[4.890756E3,1.4499404E3,3.0078447E3,0E0,0E0,0E0,0E0],"parents":[2147483647,0,0,1,1,2,2],"right_children":[2,4,6,-1,-1,-1,-1],"split_conditions":[1E0,1E0,3.2291666E-1,-2.3957219E-2,-5.509897E-2,-2.3067432E-2,3.3173848E-2],"split_indices":[47,19,12,0,0,0,0],"split_type":[0,0,0,0,0,0,0],"sum_hessian":[5.528261E4,3.390649E4,2.1376117E4,1.5591584E4,1.8314904E4,1.0704303E4,1.0671815E4],"tree_param":{"num_deleted":"0","num_feature":"49","num_nodes":"7","size_leaf_vector":"1"}},{"base_weights":[-2.8982413E-1,-3.447241E-1,1.2767504E0,-1.4736232E-2,-6.292802E-2,1.222842E-1,2.1369373E-3],"categories":[],"categories_nodes":[],"categories_segments":[],"categories_sizes":[],"default_left":[0,0,0,0,0,0,0],"id":21,"left_children":[1,3,5,-1,-1,-1,-1],"loss_changes":[4.664403E3,3.834914E3,8.1044775E2,0E0,0E0,0E0,0E0],"parents":[2147483647,0,0,1,1,2,2],"right_children":[2,4,6,-1,-1,-1,-1],"split_conditions":[2E0,1E0,1E0,-1.4736232E-2,-6.292802E-2,1.222842E-1,2.1369373E-3],"split_indices":[20,23,23,0,0,0,0],"split_type":[0,0,0,0,0,0,0],"sum_hessian":[5.4172977E4,5.234632E4,1.8266564E3,4.0280527E4,1.2065795E4,1.4209541E3,4.0570236E2],"tree_param":{"num_deleted":"0","num_feature":"49","num_nodes":"7","size_leaf_vector":"1"}},{"base_weights":[-2.6989162E-1,-3.6863273E-1,6.368179E-1,1.7068456E-3,-4.0804856E-2,7.772455E-2,1.1156795E-3],"categories":[],"categories_nodes":[],"categories_segments":[],"categories_sizes":[],"default_left":[0,0,0,0,0,0,0],"id":22,"left_children":[1,3,5,-1,-1,-1,-1],"loss_changes":[4.7651255E3,3.2945386E3,1.2988584E3,0E0,0E0,0E0,0E0],"parents":[2147483647,0,0,1,1,2,2],"right_children":[2,4,6,-1,-1,-1,-1],"split_conditions":[1.34375E0,-8.235188E-1,1E0,1.7068456E-3,-4.0804856E-2,7.772455E-2,1.1156795E-3],"split_indices":[12,1,14,0,0,0,0],"split_type":[0,0,0,0,0,0,0],"sum_hessian":[5.3187863E4,4.7969855E4,5.218007E3,1.4849393E4,3.312046E4,3.1730864E3,2.0449204E3],"tree_param":{"num_deleted":"0","num_feature":"49","num_nodes":"7","size_leaf_vector":"1"}},{"base_weights":[-2.645864E-1,-4.334044E-1,2.2227602E-1,-1.031005E-2,-4.5571018E-2,6.936314E-2,-1.3686402E-3],"categories":[],"categories_nodes":[],"categories_segments":[],"categories_sizes":[],"default_left":[0,0,0,0,0,0,0],"id":23,"left_children":[1,3,5,-1,-1,-1,-1],"loss_changes":[4.293842E3,1.9987783E3,2.2737476E3,0E0,0E0,0E0,0E0],"parents":[2147483647,0,0,1,1,2,2],"right_children":[2,4,6,-1,-1,-1,-1],"split_conditions":[7.708333E-1,-6.5049684E-1,-9.013629E-1,-1.031005E-2,-4.5571018E-2,6.936314E-2,-1.3686402E-3],"split_indices":[12,1,1,0,0,0,0],"split_type":[0,0,0,0,0,0,0],"sum_hessian":[5.2220434E4,3.8776055E4,1.3444377E4,1.4374807E4,2.4401248E4,3.4215803E3,1.0022796E4],"tree_param":{"num_deleted":"0","num_feature":"49","num_nodes":"7","size_leaf_vector":"1"}},{"base_weights":[-2.4480203E-1,-4.898019E-1,1.21692955E-1,-5.549125E-2,-2.3415416E-2,2.1903072E-2,-4.5846213E-2],"categories":[],"categories_nodes":[],"categories_segments":[],"categories_sizes":[],"default_left":[0,0,0,0,0,0,0],"id":24,"left_children":[1,3,5,-1,-1,-1,-1],"loss_changes":[4.6094473E3,1.3640889E3,2.5705696E3,0E0,0E0,0E0,0E0],"parents":[2147483647,0,0,1,1,2,2],"right_children":[2,4,6,-1,-1,-1,-1],"split_conditions":[1E0,-4.5454547E-2,1E0,-5.549125E-2,-2.3415416E-2,2.1903072E-2,-4.5846213E-2],"split_indices":[47,2,23,0,0,0,0],"split_type":[0,0,0,0,0,0,0],"sum_hessian":[5.131853E4,3.075537E4,2.056316E4,1.2758247E4,1.7997123E4,1.6690258E4,3.8729011E3],"tree_param":{"num_deleted":"0","num_feature":"49","num_nodes":"7","size_leaf_vector":"1"}},{"base_weights":[-2.2971237E-1,-3.9584166E-1,2.6577365E-1,-4.0175084E-2,1.6905821E-3,3.9121147E-2,-2.6777403E-2],"categories":[],"categories_nodes":[],"categories_segments":[],"categories_sizes":[],"default_left":[0,0,0,0,0,0,0],"id":25,"left_children":[1,3,5,-1,-1,-1,-1],"loss_changes":[4.1577812E3,2.2127476E3,2.023221E3,0E0,0E0,0E0,0E0],"parents":[2147483647,0,0,1,1,2,2],"right_children":[2,4,6,-1,-1,-1,-1],"split_conditions":[1E0,6E-1,1E0,-4.0175084E-2,1.6905821E-3,3.9121147E-2,-2.6777403E-2],"split_indices":[3,0,39,0,0,0,0],"split_type":[0,0,0,0,0,0,0],"sum_hessian":[5.0487984E4,3.7812133E4,1.2675851E4,2.8338445E4,9.473687E3,8.98609E3,3.6897605E3],"tree_param":{"num_deleted":"0","num_feature":"49","num_nodes":"7","size_leaf_vector":"1"}},{"base_weights":[-2.1429887E-1,8.089616E-2,-4.981312E-1,2.6883228E-2,-2.7182164E-2,-5.004402E-2,-1.7432844E-2],"categories":[],"categories_nodes":[],"categories_segments":[],"categories_sizes":[],"default_left":[0,0,0,0,0,0,0],"id":26,"left_children":[1,3,5,-1,-1,-1,-1],"loss_changes":[4.165418E3,3.0006016E3,1.1372856E3,0E0,0E0,0E0,0E0],"parents":[2147483647,0,0,1,1,2,2],"right_children":[2,4,6,-1,-1,-1,-1],"split_conditions":[1E0,1E0,1E0,2.6883228E-2,-2.7182164E-2,-5.004402E-2,-1.7432844E-2],"split_indices":[19,14,47,0,0,0,0],"split_type":[0,0,0,0,0,0,0],"sum_hessian":[4.970022E4,2.436596E4,2.533426E4,1.4985865E4,9.380095E3,1.5471215E4,9.863044E3],"tree_param":{"num_deleted":"0","num_feature":"49","num_nodes":"7","size_leaf_vector":"1"}},{"base_weights":[-2.0508818E-1,-3.793314E-1,2.6102924E-1,2.080909E-2,-3.5472043E-2,6.9967344E-2,-3.235056E-3],"categories":[],"categories_nodes":[],"categories_segments":[],"categories_sizes":[],"default_left":[0,0,0,0,0,0,0],"id":27,"left_children":[1,3,5,-1,-1,-1,-1],"loss_changes":[3.9831733E3,2.1962646E3,2.7280305E3,0E0,0E0,0E0,0E0],"parents":[2147483647,0,0,1,1,2,2],"right_children":[2,4,6,-1,-1,-1,-1],"split_conditions":[6E-1,-7.1428573E-1,-4.858679E-1,2.080909E-2,-3.5472043E-2,6.9967344E-2,-3.235056E-3],"split_indices":[0,11,10,0,0,0,0],"split_type":[0,0,0,0,0,0,0],"sum_hessian":[4.9020906E4,3.568359E4,1.3337317E4,4.4497847E3,3.1233803E4,4.149901E3,9.187417E3],"tree_param":{"num_deleted":"0","num_feature":"49","num_nodes":"7","size_leaf_vector":"1"}},{"base_weights":[-1.9119483E-1,-3.7519272E-2,-7.301756E-1,-7.817303E-3,1.09528065E-1,-3.6630303E-2,-6.1444193E-2],"categories":[],"categories_nodes":[],"categories_segments":[],"categories_sizes":[],"default_left":[0,0,0,0,0,0,0],"id":28,"left_children":[1,3,5,-1,-1,-1,-1],"loss_changes":[3.9998997E3,3.7578123E3,2.2675488E2,0E0,0E0,0E0,0E0],"parents":[2147483647,0,0,1,1,2,2],"right_children":[2,4,6,-1,-1,-1,-1],"split_conditions":[1E0,2E0,-4.858679E-1,-7.817303E-3,1.09528065E-1,-3.6630303E-2,-6.1444193E-2],"split_indices":[16,20,10,0,0,0,0],"split_type":[0,0,0,0,0,0,0],"sum_hessian":[4.8284844E4,3.7580496E4,1.070435E4,3.598705E4,1.593445E3,2.8995486E3,7.804801E3],"tree_param":{"num_deleted":"0","num_feature":"49","num_nodes":"7","size_leaf_vector":"1"}},{"base_weights":[-1.7898417E-1,-4.3362635E-1,1.5354514E-1,-3.6556717E-2,4.8962247E-2,3.5493102E-2,-2.5056947E-2],"categories":[],"categories_nodes":[],"categories_segments":[],"categories_sizes":[],"default_left":[0,0,0,0,0,0,0],"id":29,"left_children":[1,3,5,-1,-1,-1,-1],"loss_changes":[4.0445288E3,1.5841006E3,3.2314966E3,0E0,0E0,0E0,0E0],"parents":[2147483647,0,0,1,1,2,2],"right_children":[2,4,6,-1,-1,-1,-1],"split_conditions":[3.2291666E-1,2E0,1E0,-3.6556717E-2,4.8962247E-2,3.5493102E-2,-2.5056947E-2],"split_indices":[12,20,14,0,0,0,0],"split_type":[0,0,0,0,0,0,0],"sum_hessian":[4.7746902E4,2.7038494E4,2.0708406E4,2.5768086E4,1.2704077E3,1.2508262E4,8.200145E3],"tree_param":{"num_deleted":"0","num_feature":"49","num_nodes":"7","size_leaf_vector":"1"}},{"base_weights":[-1.7053525E-1,-6.207864E-1,1.6002888E-2,-5.352316E-2,-2.7242031E-2,1.3797745E-2,-5.48222E-2],"categories":[],"categories_nodes":[],"categories_segments":[],"categories_sizes":[],"default_left":[0,0,0,0,0,0,0],"id":30,"left_children":[1,3,5,-1,-1,-1,-1],"loss_changes":[3.960689E3,3.277793E2,4.1858877E3,0E0,0E0,0E0,0E0],"parents":[2147483647,0,0,1,1,2,2],"right_children":[2,4,6,-1,-1,-1,-1],"split_conditions":[-1.3636364E-1,6E-1,1E0,-5.352316E-2,-2.7242031E-2,1.3797745E-2,-5.48222E-2],"split_indices":[2,0,42,0,0,0,0],"split_type":[0,0,0,0,0,0,0],"sum_hessian":[4.7146043E4,1.3803926E4,3.3342117E4,1.0133039E4,3.670887E3,2.7227188E4,6.114928E3],"tree_param":{"num_deleted":"0","num_feature":"49","num_nodes":"7","size_leaf_vector":"1"}},{"base_weights":[-1.564792E-1,-4.0042123E-1,1.7767788E-1,-1.6043443E-2,-5.1536683E-2,3.5010513E-2,-1.7828101E-2],"categories":[],"categories_nodes":[],"categories_segments":[],"categories_sizes":[],"default_left":[0,0,0,0,0,0,0],"id":31,"left_children":[1,3,5,-1,-1,-1,-1],"loss_changes":[3.803037E3,1.4406084E3,2.365899E3,0E0,0E0,0E0,0E0],"parents":[2147483647,0,0,1,1,2,2],"right_children":[2,4,6,-1,-1,-1,-1],"split_conditions":[1E0,1E0,1E0,-1.6043443E-2,-5.1536683E-2,3.5010513E-2,-1.7828101E-2],"split_indices":[47,14,14,0,0,0,0],"split_type":[0,0,0,0,0,0,0],"sum_hessian":[4.6635746E4,2.695559E4,1.9680156E4,1.63427705E4,1.0612819E4,1.1602801E4,8.077356E3],"tree_param":{"num_deleted":"0","num_feature":"49","num_nodes":"7","size_leaf_vector":"1"}},{"base_weights":[-1.4566702E-1,6.553947E-3,-7.2572356E-1,2.1975782E-2,-2.9883761E-2,-5.85961E-2,-3.0198183E-2],"categories":[],"categories_nodes":[],"categories_segments":[],"categories_sizes":[],"default_left":[0,0,0,0,0,0,0],"id":32,"left_children":[1,3,5,-1,-1,-1,-1],"loss_changes":[4.0747646E3,4.2432886E3,1.690459E2,0E0,0E0,0E0,0E0],"parents":[2147483647,0,0,1,1,2,2],"right_children":[2,4,6,-1,-1,-1,-1],"split_conditions":[1E0,1E0,9.583333E-1,2.1975782E-2,-2.9883761E-2,-5.85961E-2,-3.0198183E-2],"split_indices":[23,14,12,0,0,0,0],"split_type":[0,0,0,0,0,0,0],"sum_hessian":[4.6137977E4,3.6554953E4,9.583023E3,2.1412682E4,1.5142271E4,8.164803E3,1.4182201E3],"tree_param":{"num_deleted":"0","num_feature":"49","num_nodes":"7","size_leaf_vector":"1"}},{"base_weights":[-1.3784257E-1,2.7505404E-3,-7.009998E-1,-1.318629E-2,3.9361E-2,-5.5064663E-2,6.537203E-3],"categories":[],"categories_nodes":[],"categories_segments":[],"categories_sizes":[],"default_left":[0,0,0,0,0,0,0],"id":33,"left_children":[1,3,5,-1,-1,-1,-1],"loss_changes":[3.6188557E3,3.4115183E3,2.395415E2,0E0,0E0,0E0,0E0],"parents":[2147483647,0,0,1,1,2,2],"right_children":[2,4,6,-1,-1,-1,-1],"split_conditions":[1E0,1E0,2E0,-1.318629E-2,3.9361E-2,-5.5064663E-2,6.537203E-3],"split_indices":[23,30,20,0,0,0,0],"split_type":[0,0,0,0,0,0,0],"sum_hessian":[4.5696215E4,3.6575125E4,9.121087E3,2.7258268E4,9.316858E3,8.75311E3,3.6797723E2],"tree_param":{"num_deleted":"0","num_feature":"49","num_nodes":"7","size_leaf_vector":"1"}},{"base_weights":[-1.2865864E-1,2.413979E-2,-6.9172776E-1,-2.1229148E-2,3.1423472E-2,-5.5125266E-2,-1.6505701E-2],"categories":[],"categories_nodes":[],"categories_segments":[],"categories_sizes":[],"default_left":[0,0,0,0,0,0,0],"id":34,"left_children":[1,3,5,-1,-1,-1,-1],"loss_changes":[3.8926401E3,4.318635E3,1.9549463E2,0E0,0E0,0E0,0E0],"parents":[2147483647,0,0,1,1,2,2],"right_children":[2,4,6,-1,-1,-1,-1],"split_conditions":[1E0,2.9166666E-1,1.5208334E0,-2.1229148E-2,3.1423472E-2,-5.5125266E-2,-1.6505701E-2],"split_indices":[16,12,12,0,0,0,0],"split_type":[0,0,0,0,0,0,0],"sum_hessian":[4.5232336E4,3.5585242E4,9.647093E3,2.0015514E4,1.556973E4,8.831213E3,8.158793E2],"tree_param":{"num_deleted":"0","num_feature":"49","num_nodes":"7","size_leaf_vector":"1"}},{"base_weights":[-1.2310545E-1,1.6458887E-1,-4.1872308E-1,2.8643744E-2,-4.0446606E-2,-4.362762E-2,-1.24443965E-2],"categories":[],"categories_nodes":[],"categories_segments":[],"categories_sizes":[],"default_left":[0,0,0,0,0,0,0],"id":35,"left_children":[1,3,5,-1,-1,-1,-1],"loss_changes":[3.812734E3,3.4780205E3,9.0996655E2,0E0,0E0,0E0,0E0],"parents":[2147483647,0,0,1,1,2,2],"right_children":[2,4,6,-1,-1,-1,-1],"split_conditions":[1E0,1E0,4E-1,2.8643744E-2,-4.0446606E-2,-4.362762E-2,-1.24443965E-2],"split_indices":[19,16,0,0,0,0,0],"split_type":[0,0,0,0,0,0,0],"sum_hessian":[4.4812527E4,2.2712861E4,2.2099666E4,1.7358008E4,5.3548525E3,1.3428995E4,8.670671E3],"tree_param":{"num_deleted":"0","num_feature":"49","num_nodes":"7","size_leaf_vector":"1"}},{"base_weights":[-1.1752002E-1,2.8113922E-1,-3.0692583E-1,6.0542684E-2,5.2689936E-4,-2.733897E-4,-3.7880514E-2],"categories":[],"categories_nodes":[],"categories_segments":[],"categories_sizes":[],"default_left":[0,0,0,0,0,0,0],"id":36,"left_children":[1,3,5,-1,-1,-1,-1],"loss_changes":[3.3565469E3,2.0648894E3,1.8107573E3,0E0,0E0,0E0,0E0],"parents":[2147483647,0,0,1,1,2,2],"right_children":[2,4,6,-1,-1,-1,-1],"split_conditions":[-8.235188E-1,-3.7828895E-1,-3.7828895E-1,6.0542684E-2,5.2689936E-4,-2.733897E-4,-3.7880514E-2],"split_indices":[1,10,10,0,0,0,0],"split_type":[0,0,0,0,0,0,0],"sum_hessian":[4.443121E4,1.4308982E4,3.0122229E4,4.8949116E3,9.41407E3,1.1907318E4,1.821491E4],"tree_param":{"num_deleted":"0","num_feature":"49","num_nodes":"7","size_leaf_vector":"1"}},{"base_weights":[-1.0734095E-1,-2.7456513E-1,3.4892806E-1,-1.1011371E-2,-5.40389E-2,4.349867E-2,-3.4092214E-2],"categories":[],"categories_nodes":[],"categories_segments":[],"categories_sizes":[],"default_left":[0,0,0,0,0,0,0],"id":37,"left_children":[1,3,5,-1,-1,-1,-1],"loss_changes":[3.369087E3,1.8395991E3,2.201469E3,0E0,0E0,0E0,0E0],"parents":[2147483647,0,0,1,1,2,2],"right_children":[2,4,6,-1,-1,-1,-1],"split_conditions":[1E0,1E0,1E0,-1.1011371E-2,-5.40389E-2,4.349867E-2,-3.4092214E-2],"split_indices":[3,23,16,0,0,0,0],"split_type":[0,0,0,0,0,0,0],"sum_hessian":[4.413369E4,3.2299715E4,1.1833976E4,2.5117814E4,7.1819004E3,9.193149E3,2.6408264E3],"tree_param":{"num_deleted":"0","num_feature":"49","num_nodes":"7","size_leaf_vector":"1"}},{"base_weights":[-1.02140225E-1,1.6268808E-1,-3.862318E-1,2.5551217E-2,-3.1866856E-2,-2.307733E-2,-5.97289E-2],"categories":[],"categories_nodes":[],"categories_segments":[],"categories_sizes":[],"default_left":[0,0,0,0,0,0,0],"id":38,"left_children":[1,3,5,-1,-1,-1,-1],"loss_changes":[3.2956E3,2.3727505E3,6.782405E2,0E0,0E0,0E0,0E0],"parents":[2147483647,0,0,1,1,2,2],"right_children":[2,4,6,-1,-1,-1,-1],"split_conditions":[1E0,1.02582544E-1,1E0,2.5551217E-2,-3.1866856E-2,-2.307733E-2,-5.97289E-2],"split_indices":[19,5,42,0,0,0,0],"split_type":[0,0,0,0,0,0,0],"sum_hessian":[4.378544E4,2.2663215E4,2.1122227E4,1.739728E4,5.2659365E3,1.7742488E4,3.3797383E3],"tree_param":{"num_deleted":"0","num_feature":"49","num_nodes":"7","size_leaf_vector":"1"}},{"base_weights":[-9.133579E-2,-5.376849E-1,7.14833E-2,-2.530181E-2,-5.0689336E-2,1.6608821E-2,-4.993914E-2],"categories":[],"categories_nodes":[],"categories_segments":[],"categories_sizes":[],"default_left":[0,0,0,0,0,0,0],"id":39,"left_children":[1,3,5,-1,-1,-1,-1],"loss_changes":[3.160292E3,3.1943384E2,3.525318E3,0E0,0E0,0E0,0E0],"parents":[2147483647,0,0,1,1,2,2],"right_children":[2,4,6,-1,-1,-1,-1],"split_conditions":[-1.3636364E-1,1E0,1E0,-2.530181E-2,-5.0689336E-2,1.6608821E-2,-4.993914E-2],"split_indices":[2,23,42,0,0,0,0],"split_type":[0,0,0,0,0,0,0],"sum_hessian":[4.3470484E4,1.1612681E4,3.1857805E4,4.754241E3,6.858439E3,2.6479188E4,5.378618E3],"tree_param":{"num_deleted":"0","num_feature":"49","num_nodes":"7","size_leaf_vector":"1"}},{"base_weights":[-9.096046E-2,-3.2512805E-1,2.0750822E-1,-2.9496357E-2,3.3996794E-2,-5.2185496E-3,3.9396655E-2],"categories":[],"categories_nodes":[],"categories_segments":[],"categories_sizes":[],"default_left":[0,0,0,0,0,0,0],"id":40,"left_children":[1,3,5,-1,-1,-1,-1],"loss_changes":[3.0186118E3,1.285721E3,1.6724823E3,0E0,0E0,0E0,0E0],"parents":[2147483647,0,0,1,1,2,2],"right_children":[2,4,6,-1,-1,-1,-1],"split_conditions":[1E0,1E0,4E-1,-2.9496357E-2,3.3996794E-2,-5.2185496E-3,3.9396655E-2],"split_indices":[47,45,0,0,0,0,0],"split_type":[0,0,0,0,0,0,0],"sum_hessian":[4.31702E4,2.4190402E4,1.8979797E4,2.2247414E4,1.9429886E3,1.014322E4,8.836576E3],"tree_param":{"num_deleted":"0","num_feature":"49","num_nodes":"7","size_leaf_vector":"1"}},{"base_weights":[-7.60888E-2,2.6408395E-1,-2.8675386E-1,-1.769466E-2,3.7155088E-2,-2.7577313E-2,3.4168582E-2],"categories":[],"categories_nodes":[],"categories_segments":[],"categories_sizes":[],"default_left":[0,0,0,0,0,0,0],"id":41,"left_children":[1,3,5,-1,-1,-1,-1],"loss_changes":[3.0748992E3,1.8993053E3,1.5937693E3,0E0,0E0,0E0,0E0],"parents":[2147483647,0,0,1,1,2,2],"right_children":[2,4,6,-1,-1,-1,-1],"split_conditions":[-6.340498E-1,-6.363636E-2,1.4791666E0,-1.769466E-2,3.7155088E-2,-2.7577313E-2,3.4168582E-2],"split_indices":[1,2,12,0,0,0,0],"split_type":[0,0,0,0,0,0,0],"sum_hessian":[4.2887492E4,1.6401129E4,2.6486361E4,5.1875586E3,1.121357E4,2.388681E4,2.5995525E3],"tree_param":{"num_deleted":"0","num_feature":"49","num_nodes":"7","size_leaf_vector":"1"}},{"base_weights":[-7.545193E-2,-2.4711801E-1,3.3455217E-1,-2.1362137E-3,-3.5613794E-2,4.4260662E-2,-1.7677985E-2],"categories":[],"categories_nodes":[],"categories_segments":[],"categories_sizes":[],"default_left":[0,0,0,0,0,0,0],"id":42,"left_children":[1,3,5,-1,-1,-1,-1],"loss_changes":[3.0001216E3,1.4957083E3,1.835041E3,0E0,0E0,0E0,0E0],"parents":[2147483647,0,0,1,1,2,2],"right_children":[2,4,6,-1,-1,-1,-1],"split_conditions":[6E-1,1E0,1E0,-2.1362137E-3,-3.5613794E-2,4.4260662E-2,-1.7677985E-2],"split_indices":[0,19,40,0,0,0,0],"split_type":[0,0,0,0,0,0,0],"sum_hessian":[4.2603426E4,3.0032842E4,1.2570585E4,1.532821E4,1.4704632E4,8.679903E3,3.8906821E3],"tree_param":{"num_deleted":"0","num_feature":"49","num_nodes":"7","size_leaf_vector":"1"}},{"base_weights":[-7.879404E-2,5.3574955E-1,-1.8014258E-1,5.9167612E-2,-6.632872E-3,-2.4550932E-2,1.2197662E-2],"categories":[],"categories_nodes":[],"categories_segments":[],"categories_sizes":[],"default_left":[0,0,0,0,0,0,0],"id":43,"left_children":[1,3,5,-1,-1,-1,-1],"loss_changes":[2.6370515E3,9.4789E2,1.8341726E3,0E0,0E0,0E0,0E0],"parents":[2147483647,0,0,1,1,2,2],"right_children":[2,4,6,-1,-1,-1,-1],"split_conditions":[-7.1428573E-1,1E0,6E-1,5.9167612E-2,-6.632872E-3,-2.4550932E-2,1.2197662E-2],"split_indices":[11,39,0,0,0,0,0],"split_type":[0,0,0,0,0,0,0],"sum_hessian":[4.231427E4,5.984345E3,3.6329926E4,4.255716E3,1.7286296E3,2.5415781E4,1.0914143E4],"tree_param":{"num_deleted":"0","num_feature":"49","num_nodes":"7","size_leaf_vector":"1"}},{"base_weights":[-6.625581E-2,2.2312346E-1,-2.8300717E-1,-5.196865E-3,4.2860176E-2,-2.6559964E-2,3.453859E-2],"categories":[],"categories_nodes":[],"categories_segments":[],"categories_sizes":[],"default_left":[0,0,0,0,0,0,0],"id":44,"left_children":[1,3,5,-1,-1,-1,-1],"loss_changes":[2.6421714E3,1.8380837E3,1.2752283E3,0E0,0E0,0E0,0E0],"parents":[2147483647,0,0,1,1,2,2],"right_children":[2,4,6,-1,-1,-1,-1],"split_conditions":[-4.5965248E-1,3.2291666E-1,1.5520834E0,-5.196865E-3,4.2860176E-2,-2.6559964E-2,3.453859E-2],"split_indices":[1,12,12,0,0,0,0],"split_type":[0,0,0,0,0,0,0],"sum_hessian":[4.210414E4,1.8031049E4,2.4073092E4,9.806824E3,8.224225E3,2.1976086E4,2.0970068E3],"tree_param":{"num_deleted":"0","num_feature":"49","num_nodes":"7","size_leaf_vector":"1"}},{"base_weights":[-6.452027E-2,1.5124302E-1,-4.1052777E-1,2.3950053E-2,-3.9763693E-2,2.0433303E-2,-3.8258974E-2],"categories":[],"categories_nodes":[],"categories_segments":[],"categories_sizes":[],"default_left":[0,0,0,0,0,0,0],"id":45,"left_children":[1,3,5,-1,-1,-1,-1],"loss_changes":[3.1280186E3,2.9578828E3,1.0959456E3,0E0,0E0,0E0,0E0],"parents":[2147483647,0,0,1,1,2,2],"right_children":[2,4,6,-1,-1,-1,-1],"split_conditions":[1E0,1E0,-8.5714287E-1,2.3950053E-2,-3.9763693E-2,2.0433303E-2,-3.8258974E-2],"split_indices":[14,23,11,0,0,0,0],"split_type":[0,0,0,0,0,0,0],"sum_hessian":[4.1880938E4,2.5798895E4,1.6082042E4,2.0698416E4,5.1004785E3,2.0444495E3,1.4037592E4],"tree_param":{"num_deleted":"0","num_feature":"49","num_nodes":"7","size_leaf_vector":"1"}},{"base_weights":[-5.378233E-2,8.72559E-2,-6.1956966E-1,2.7647136E-2,-1.6573563E-2,-3.7129343E-2,-5.993298E-2],"categories":[],"categories_nodes":[],"categories_segments":[],"categories_sizes":[],"default_left":[0,0,0,0,0,0,0],"id":46,"left_children":[1,3,5,-1,-1,-1,-1],"loss_changes":[3.3297905E3,2.8980073E3,1.821709E2,0E0,0E0,0E0,0E0],"parents":[2147483647,0,0,1,1,2,2],"right_children":[2,4,6,-1,-1,-1,-1],"split_conditions":[1E0,1E0,1E0,2.7647136E-2,-1.6573563E-2,-3.7129343E-2,-5.993298E-2],"split_indices":[16,19,19,0,0,0,0],"split_type":[0,0,0,0,0,0,0],"sum_hessian":[4.1711156E4,3.3394984E4,8.316171E3,1.745725E4,1.5937735E4,4.932779E3,3.3833923E3],"tree_param":{"num_deleted":"0","num_feature":"49","num_nodes":"7","size_leaf_vector":"1"}},{"base_weights":[-5.5823322E-2,-1.11929946E-1,1.0649853E0,-3.8777556E-2,1.7944583E-3,5.1618837E-2,1.2892915E-1],"categories":[],"categories_nodes":[],"categories_segments":[],"categories_sizes":[],"default_left":[0,0,0,0,0,0,0],"id":47,"left_children":[1,3,5,-1,-1,-1,-1],"loss_changes":[2.6109404E3,2.17575E3,4.759104E2,0E0,0E0,0E0,0E0],"parents":[2147483647,0,0,1,1,2,2],"right_children":[2,4,6,-1,-1,-1,-1],"split_conditions":[2E0,-1.3636364E-1,4.0625E-1,-3.8777556E-2,1.7944583E-3,5.1618837E-2,1.2892915E-1],"split_indices":[20,2,12,0,0,0,0],"split_type":[0,0,0,0,0,0,0],"sum_hessian":[4.149047E4,3.9521082E4,1.969387E3,9.918229E3,2.9602852E4,1.2626454E3,7.067415E2],"tree_param":{"num_deleted":"0","num_feature":"49","num_nodes":"7","size_leaf_vector":"1"}},{"base_weights":[-5.3276304E-2,7.539469E-2,-5.927476E-1,1.5216044E-2,-3.9606005E-2,-3.4664582E-2,-5.89344E-2],"categories":[],"categories_nodes":[],"categories_segments":[],"categories_sizes":[],"default_left":[0,0,0,0,0,0,0],"id":48,"left_children":[1,3,5,-1,-1,-1,-1],"loss_changes":[2.8674475E3,2.567415E3,1.9685986E2,0E0,0E0,0E0,0E0],"parents":[2147483647,0,0,1,1,2,2],"right_children":[2,4,6,-1,-1,-1,-1],"split_conditions":[1E0,1E0,1E0,1.5216044E-2,-3.9606005E-2,-3.4664582E-2,-5.89344E-2],"split_indices":[16,23,19,0,0,0,0],"split_type":[0,0,0,0,0,0,0],"sum_hessian":[4.129273E4,3.334751E4,7.9452173E3,2.7536896E4,5.8106157E3,4.7600225E3,3.1851948E3],"tree_param":{"num_deleted":"0","num_feature":"49","num_nodes":"7","size_leaf_vector":"1"}},{"base_weights":[-5.359236E-2,6.583932E-2,-5.754593E-1,8.359515E-4,1.02811426E-1,-4.9773254E-2,-2.4074132E-2],"categories":[],"categories_nodes":[],"categories_segments":[],"categories_sizes":[],"default_left":[0,0,0,0,0,0,0],"id":49,"left_children":[1,3,5,-1,-1,-1,-1],"loss_changes":[2.5634417E3,2.3889436E3,1.6974976E2,0E0,0E0,0E0,0E0],"parents":[2147483647,0,0,1,1,2,2],"right_children":[2,4,6,-1,-1,-1,-1],"split_conditions":[1E0,1E0,1E0,8.359515E-4,1.02811426E-1,-4.9773254E-2,-2.4074132E-2],"split_indices":[16,28,25,0,0,0,0],"split_type":[0,0,0,0,0,0,0],"sum_hessian":[4.111253E4,3.3463086E4,7.6494453E3,3.2126703E4,1.3363843E3,5.6688784E3,1.980567E3],"tree_param":{"num_deleted":"0","num_feature":"49","num_nodes":"7","size_leaf_vector":"1"}},{"base_weights":[-4.1746162E-2,-3.0717158E-1,1.8219529E-1,-3.940577E-2,-8.826002E-3,2.4509015E-2,-2.7487123E-2],"categories":[],"categories_nodes":[],"categories_segments":[],"categories_sizes":[],"default_left":[0,0,0,0,0,0,0],"id":50,"left_children":[1,3,5,-1,-1,-1,-1],"loss_changes":[2.4371929E3,7.753087E2,1.7656663E3,0E0,0E0,0E0,0E0],"parents":[2147483647,0,0,1,1,2,2],"right_children":[2,4,6,-1,-1,-1,-1],"split_conditions":[1E0,5E-1,3.6927247E-1,-3.940577E-2,-8.826002E-3,2.4509015E-2,-2.7487123E-2],"split_indices":[13,3,5,0,0,0,0],"split_type":[0,0,0,0,0,0,0],"sum_hessian":[4.098333E4,1.8752871E4,2.2230459E4,8.707109E3,1.0045762E4,1.7597252E4,4.6332065E3],"tree_param":{"num_deleted":"0","num_feature":"49","num_nodes":"7","size_leaf_vector":"1"}},{"base_weights":[-4.2248152E-2,2.7954996E-1,-2.5006893E-1,-2.7068935E-3,4.3771528E-2,8.1040505E-3,-2.9312115E-2],"categories":[],"categories_nodes":[],"categories_segments":[],"categories_sizes":[],"default_left":[0,0,0,0,0,0,0],"id":51,"left_children":[1,3,5,-1,-1,-1,-1],"loss_changes":[2.732756E3,1.5392131E3,1.2519447E3,0E0,0E0,0E0,0E0],"parents":[2147483647,0,0,1,1,2,2],"right_children":[2,4,6,-1,-1,-1,-1],"split_conditions":[-3.7828895E-1,2.9166666E-1,-1.0603017E0,-2.7068935E-3,4.3771528E-2,8.1040505E-3,-2.9312115E-2],"split_indices":[10,12,1,0,0,0,0],"split_type":[0,0,0,0,0,0,0],"sum_hessian":[4.0842367E4,1.60250625E4,2.4817307E4,7.8672427E3,8.15782E3,7.0028403E3,1.7814467E4],"tree_param":{"num_deleted":"0","num_feature":"49","num_nodes":"7","size_leaf_vector":"1"}},{"base_weights":[-4.1995298E-2,-3.0454314E-1,1.7217343E-1,2.395047E-2,-2.7445488E-2,-5.626449E-3,3.5335016E-2],"categories":[],"categories_nodes":[],"categories_segments":[],"categories_sizes":[],"default_left":[0,0,0,0,0,0,0],"id":52,"left_children":[1,3,5,-1,-1,-1,-1],"loss_changes":[2.288747E3,7.0159595E2,1.6570947E3,0E0,0E0,0E0,0E0],"parents":[2147483647,0,0,1,1,2,2],"right_children":[2,4,6,-1,-1,-1,-1],"split_conditions":[1E0,-8.5714287E-1,3.8541666E-1,2.395047E-2,-2.7445488E-2,-5.626449E-3,3.5335016E-2],"split_indices":[13,11,12,0,0,0,0],"split_type":[0,0,0,0,0,0,0],"sum_hessian":[4.0684316E4,1.8275857E4,2.2408459E4,1.6336364E3,1.6642223E4,1.2270328E4,1.0138132E4],"tree_param":{"num_deleted":"0","num_feature":"49","num_nodes":"7","size_leaf_vector":"1"}},{"base_weights":[-3.7992164E-2,5.5806573E-2,-6.2914175E-1,1.9967657E-2,-2.4964215E-2,-4.905538E-2,1.142687E-2],"categories":[],"categories_nodes":[],"categories_segments":[],"categories_sizes":[],"default_left":[0,0,0,0,0,0,0],"id":53,"left_children":[1,3,5,-1,-1,-1,-1],"loss_changes":[2.2481838E3,2.8630952E3,1.09170654E2,0E0,0E0,0E0,0E0],"parents":[2147483647,0,0,1,1,2,2],"right_children":[2,4,6,-1,-1,-1,-1],"split_conditions":[1E0,1E0,2E0,1.9967657E-2,-2.4964215E-2,-4.905538E-2,1.142687E-2],"split_indices":[42,40,20,0,0,0,0],"split_type":[0,0,0,0,0,0,0],"sum_hessian":[4.052868E4,3.4986383E4,5.542295E3,2.2699582E4,1.2286802E4,5.372541E3,1.6975388E2],"tree_param":{"num_deleted":"0","num_feature":"49","num_nodes":"7","size_leaf_vector":"1"}},{"base_weights":[-3.9036732E-2,2.5337338E-1,-2.3441081E-1,5.2658435E-2,5.3761513E-3,8.645955E-3,-2.7545841E-2],"categories":[],"categories_nodes":[],"categories_segments":[],"categories_sizes":[],"default_left":[0,0,0,0,0,0,0],"id":54,"left_children":[1,3,5,-1,-1,-1,-1],"loss_changes":[2.3094773E3,1.3196943E3,1.126327E3,0E0,0E0,0E0,0E0],"parents":[2147483647,0,0,1,1,2,2],"right_children":[2,4,6,-1,-1,-1,-1],"split_conditions":[-3.7828895E-1,-9.013629E-1,-1.0956683E0,5.2658435E-2,5.3761513E-3,8.645955E-3,-2.7545841E-2],"split_indices":[10,1,1,0,0,0,0],"split_type":[0,0,0,0,0,0,0],"sum_hessian":[4.0405008E4,1.6182383E4,2.4222623E4,4.6555415E3,1.1526841E4,6.6698086E3,1.7552814E4],"tree_param":{"num_deleted":"0","num_feature":"49","num_nodes":"7","size_leaf_vector":"1"}},{"base_weights":[-2.8072378E-2,-2.4386385E-1,2.2687839E-1,-2.1581763E-2,5.197709E-2,4.2050395E-2,-2.2253046E-4],"categories":[],"categories_nodes":[],"categories_segments":[],"categories_sizes":[],"default_left":[0,0,0,0,0,0,0],"id":55,"left_children":[1,3,5,-1,-1,-1,-1],"loss_changes":[2.2195889E3,9.005127E2,1.4189445E3,0E0,0E0,0E0,0E0],"parents":[2147483647,0,0,1,1,2,2],"right_children":[2,4,6,-1,-1,-1,-1],"split_conditions":[1E0,2E0,-3.7828895E-1,-2.1581763E-2,5.197709E-2,4.2050395E-2,-2.2253046E-4],"split_indices":[47,20,10,0,0,0,0],"split_type":[0,0,0,0,0,0,0],"sum_hessian":[4.032422E4,2.1839555E4,1.8484662E4,2.086879E4,9.7076544E2,7.531962E3,1.09527E4],"tree_param":{"num_deleted":"0","num_feature":"49","num_nodes":"7","size_leaf_vector":"1"}},{"base_weights":[-2.9333292E-2,1.691071E-1,-3.6148962E-1,-9.886303E-3,3.737317E-2,6.0347966E-3,-3.613344E-2],"categories":[],"categories_nodes":[],"categories_segments":[],"categories_sizes":[],"default_left":[0,0,0,0,0,0,0],"id":56,"left_children":[1,3,5,-1,-1,-1,-1],"loss_changes":[2.6491978E3,2.4932812E3,7.9949255E2,0E0,0E0,0E0,0E0],"parents":[2147483647,0,0,1,1,2,2],"right_children":[2,4,6,-1,-1,-1,-1],"split_conditions":[1E0,5E-1,-7.1428573E-1,-9.886303E-3,3.737317E-2,6.0347966E-3,-3.613344E-2],"split_indices":[14,3,11,0,0,0,0],"split_type":[0,0,0,0,0,0,0],"sum_hessian":[4.017293E4,2.5151537E4,1.5021392E4,1.3143247E4,1.200829E4,3.214472E3,1.180692E4],"tree_param":{"num_deleted":"0","num_feature":"49","num_nodes":"7","size_leaf_vector":"1"}},{"base_weights":[-2.8180098E-2,8.389777E-2,-5.433704E-1,-1.2567559E-2,2.4680512E-2,-3.3344958E-2,-5.6373246E-2],"categories":[],"categories_nodes":[],"categories_segments":[],"categories_sizes":[],"default_left":[0,0,0,0,0,0,0],"id":57,"left_children":[1,3,5,-1,-1,-1,-1],"loss_changes":[2.3120957E3,2.0283126E3,1.4383594E2,0E0,0E0,0E0,0E0],"parents":[2147483647,0,0,1,1,2,2],"right_children":[2,4,6,-1,-1,-1,-1],"split_conditions":[1E0,2.2916667E-1,1E0,-1.2567559E-2,2.4680512E-2,-3.3344958E-2,-5.6373246E-2],"split_indices":[16,12,40,0,0,0,0],"split_type":[0,0,0,0,0,0,0],"sum_hessian":[4.0024332E4,3.2879812E4,7.144518E3,1.6233273E4,1.6646541E4,4.867506E3,2.2770125E3],"tree_param":{"num_deleted":"0","num_feature":"49","num_nodes":"7","size_leaf_vector":"1"}},{"base_weights":[-3.0733103E-2,7.210566E-2,-5.2203065E-1,-1.1327621E-2,2.6625575E-2,-5.0975192E-2,-2.7494004E-2],"categories":[],"categories_nodes":[],"categories_segments":[],"categories_sizes":[],"default_left":[0,0,0,0,0,0,0],"id":58,"left_children":[1,3,5,-1,-1,-1,-1],"loss_changes":[2.01632E3,2.0839026E3,1.6677051E2,0E0,0E0,0E0,0E0],"parents":[2147483647,0,0,1,1,2,2],"right_children":[2,4,6,-1,-1,-1,-1],"split_conditions":[1E0,4E-1,4E-1,-1.1327621E-2,2.6625575E-2,-5.0975192E-2,-2.7494004E-2],"split_indices":[16,0,0,0,0,0,0],"split_type":[0,0,0,0,0,0,0],"sum_hessian":[3.989037E4,3.299282E4,6.897549E3,1.844717E4,1.4545651E4,3.4078555E3,3.4896936E3],"tree_param":{"num_deleted":"0","num_feature":"49","num_nodes":"7","size_leaf_vector":"1"}},{"base_weights":[-3.2715283E-2,1.4279898E-1,-3.375365E-1,-1.6381879E-3,4.8947617E-2,6.0450365E-3,-3.4171265E-2],"categories":[],"categories_nodes":[],"categories_segments":[],"categories_sizes":[],"default_left":[0,0,0,0,0,0,0],"id":59,"left_children":[1,3,5,-1,-1,-1,-1],"loss_changes":[2.1255347E3,2.1165698E3,7.171124E2,0E0,0E0,0E0,0E0],"parents":[2147483647,0,0,1,1,2,2],"right_children":[2,4,6,-1,-1,-1,-1],"split_conditions":[1E0,1E0,-7.1428573E-1,-1.6381879E-3,4.8947617E-2,6.0450365E-3,-3.4171265E-2],"split_indices":[14,3,11,0,0,0,0],"split_type":[0,0,0,0,0,0,0],"sum_hessian":[3.971026E4,2.5203531E4,1.4506729E4,1.9058527E4,6.1450044E3,3.1952231E3,1.1311505E4],"tree_param":{"num_deleted":"0","num_feature":"49","num_nodes":"7","size_leaf_vector":"1"}},{"base_weights":[-2.479171E-2,-3.714768E-1,1.1071607E-1,-3.141642E-2,4.0113457E-2,2.352101E-2,-1.6525825E-2],"categories":[],"categories_nodes":[],"categories_segments":[],"categories_sizes":[],"default_left":[0,0,0,0,0,0,0],"id":60,"left_children":[1,3,5,-1,-1,-1,-1],"loss_changes":[1.8623307E3,4.809104E2,1.9152859E3,0E0,0E0,0E0,0E0],"parents":[2147483647,0,0,1,1,2,2],"right_children":[2,4,6,-1,-1,-1,-1],"split_conditions":[-8.181818E-2,2E0,1E0,-3.141642E-2,4.0113457E-2,2.352101E-2,-1.6525825E-2],"split_indices":[2,20,14,0,0,0,0],"split_type":[0,0,0,0,0,0,0],"sum_hessian":[3.962341E4,1.1130236E4,2.8493174E4,1.0582077E4,5.4815924E2,1.7666445E4,1.0826729E4],"tree_param":{"num_deleted":"0","num_feature":"49","num_nodes":"7","size_leaf_vector":"1"}},{"base_weights":[-2.3165334E-2,1.1342771E-1,-4.4478184E-1,1.9287562E-2,-4.3798678E-2,-3.6628406E-2,1.3389195E-2],"categories":[],"categories_nodes":[],"categories_segments":[],"categories_sizes":[],"default_left":[0,0,0,0,0,0,0],"id":61,"left_children":[1,3,5,-1,-1,-1,-1],"loss_changes":[2.2785186E3,2.9972935E3,2.6395227E2,0E0,0E0,0E0,0E0],"parents":[2147483647,0,0,1,1,2,2],"right_children":[2,4,6,-1,-1,-1,-1],"split_conditions":[1E0,1E0,2E0,1.9287562E-2,-4.3798678E-2,-3.6628406E-2,1.3389195E-2],"split_indices":[39,42,20,0,0,0,0],"split_type":[0,0,0,0,0,0,0],"sum_hessian":[3.9545805E4,2.9874527E4,9.671279E3,2.4774656E4,5.099871E3,9.041068E3,6.3021075E2],"tree_param":{"num_deleted":"0","num_feature":"49","num_nodes":"7","size_leaf_vector":"1"}},{"base_weights":[-2.2414073E-2,8.914247E-2,-4.4040138E-1,2.8447533E-2,-8.5258065E-3,-3.9667785E-2,2.7170442E-3],"categories":[],"categories_nodes":[],"categories_segments":[],"categories_sizes":[],"default_left":[0,0,0,0,0,0,0],"id":62,"left_children":[1,3,5,-1,-1,-1,-1],"loss_changes":[1.8404858E3,1.8340281E3,3.5094202E2,0E0,0E0,0E0,0E0],"parents":[2147483647,0,0,1,1,2,2],"right_children":[2,4,6,-1,-1,-1,-1],"split_conditions":[1.02582544E-1,-6.5049684E-1,7.6526296E-1,2.8447533E-2,-8.5258065E-3,-3.9667785E-2,2.7170442E-3],"split_indices":[5,1,9,0,0,0,0],"split_type":[0,0,0,0,0,0,0],"sum_hessian":[3.945224E4,3.1147227E4,8.30501E3,1.2810945E4,1.8336281E4,7.0034775E3,1.3015321E3],"tree_param":{"num_deleted":"0","num_feature":"49","num_nodes":"7","size_leaf_vector":"1"}},{"base_weights":[-1.3899073E-2,8.127792E-2,-5.234055E-1,1.6641026E-2,-2.6333254E-2,-4.6609826E-2,-2.1497529E-2],"categories":[],"categories_nodes":[],"categories_segments":[],"categories_sizes":[],"default_left":[0,0,0,0,0,0,0],"id":63,"left_children":[1,3,5,-1,-1,-1,-1],"loss_changes":[1.9107643E3,2.0192847E3,1.4221228E2,0E0,0E0,0E0,0E0],"parents":[2147483647,0,0,1,1,2,2],"right_children":[2,4,6,-1,-1,-1,-1],"split_conditions":[1E0,1E0,6E-1,1.6641026E-2,-2.6333254E-2,-4.6609826E-2,-2.1497529E-2],"split_indices":[23,39,0,0,0,0,0],"split_type":[0,0,0,0,0,0,0],"sum_hessian":[3.9383875E4,3.3191945E4,6.1919287E3,2.5050861E4,8.1410845E3,4.367065E3,1.8248639E3],"tree_param":{"num_deleted":"0","num_feature":"49","num_nodes":"7","size_leaf_vector":"1"}},{"base_weights":[-1.582826E-2,1.02548E-1,-4.0335378E-1,1.5173109E-2,-3.1057686E-2,-4.112393E-2,-1.536508E-2],"categories":[],"categories_nodes":[],"categories_segments":[],"categories_sizes":[],"default_left":[0,0,0,0,0,0,0],"id":64,"left_children":[1,3,5,-1,-1,-1,-1],"loss_changes":[1.8030194E3,1.5526488E3,2.634973E2,0E0,0E0,0E0,0E0],"parents":[2147483647,0,0,1,1,2,2],"right_children":[2,4,6,-1,-1,-1,-1],"split_conditions":[1E0,1E0,1E0,1.5173109E-2,-3.1057686E-2,-4.112393E-2,-1.536508E-2],"split_indices":[39,16,47,0,0,0,0],"split_type":[0,0,0,0,0,0,0],"sum_hessian":[3.928487E4,3.0098215E4,9.186658E3,2.5232207E4,4.8660063E3,5.298932E3,3.887726E3],"tree_param":{"num_deleted":"0","num_feature":"49","num_nodes":"7","size_leaf_vector":"1"}},{"base_weights":[-1.6809313E-2,7.277998E-2,-5.140256E-1,2.581363E-2,-8.919593E-3,-4.6201147E-2,-2.2695025E-2],"categories":[],"categories_nodes":[],"categories_segments":[],"categories_sizes":[],"default_left":[0,0,0,0,0,0,0],"id":65,"left_children":[1,3,5,-1,-1,-1,-1],"loss_changes":[1.7469323E3,1.7294282E3,1.2724194E2,0E0,0E0,0E0,0E0],"parents":[2147483647,0,0,1,1,2,2],"right_children":[2,4,6,-1,-1,-1,-1],"split_conditions":[1E0,-3.7828895E-1,1E0,2.581363E-2,-8.919593E-3,-4.6201147E-2,-2.2695025E-2],"split_indices":[23,10,30,0,0,0,0],"split_type":[0,0,0,0,0,0,0],"sum_hessian":[3.919862E4,3.3221285E4,5.977333E3,1.3748922E4,1.9472365E4,4.0193152E3,1.9580178E3],"tree_param":{"num_deleted":"0","num_feature":"49","num_nodes":"7","size_leaf_vector":"1"}},{"base_weights":[-1.9484982E-2,-2.6647177E-1,1.75317E-1,-3.2934397E-2,-5.3503597E-3,2.9407892E-2,-8.179189E-3],"categories":[],"categories_nodes":[],"categories_segments":[],"categories_sizes":[],"default_left":[0,0,0,0,0,0,0],"id":66,"left_children":[1,3,5,-1,-1,-1,-1],"loss_changes":[1.8829003E3,5.8103784E2,1.3492507E3,0E0,0E0,0E0,0E0],"parents":[2147483647,0,0,1,1,2,2],"right_children":[2,4,6,-1,-1,-1,-1],"split_conditions":[1E0,1E0,1E0,-3.2934397E-2,-5.3503597E-3,2.9407892E-2,-8.179189E-3],"split_indices":[13,47,19,0,0,0,0],"split_type":[0,0,0,0,0,0,0],"sum_hessian":[3.911483E4,1.7245639E4,2.186919E4,9.143235E3,8.102403E3,1.2407042E4,9.462147E3],"tree_param":{"num_deleted":"0","num_feature":"49","num_nodes":"7","size_leaf_vector":"1"}},{"base_weights":[-1.1578535E-2,6.955843E-2,-5.720277E-1,1.9711439E-2,-2.2641921E-2,-3.1333294E-2,-5.1106066E-2],"categories":[],"categories_nodes":[],"categories_segments":[],"categories_sizes":[],"default_left":[0,0,0,0,0,0,0],"id":67,"left_children":[1,3,5,-1,-1,-1,-1],"loss_changes":[1.7772072E3,2.4516924E3,8.054736E1,0E0,0E0,0E0,0E0],"parents":[2147483647,0,0,1,1,2,2],"right_children":[2,4,6,-1,-1,-1,-1],"split_conditions":[1E0,1E0,-1.3291825E-1,1.9711439E-2,-2.2641921E-2,-3.1333294E-2,-5.1106066E-2],"split_indices":[42,40,1,0,0,0,0],"split_type":[0,0,0,0,0,0,0],"sum_hessian":[3.9063816E4,3.413134E4,4.9324795E3,2.2452521E4,1.1678817E4,2.0665469E3,2.8659326E3],"tree_param":{"num_deleted":"0","num_feature":"49","num_nodes":"7","size_leaf_vector":"1"}},{"base_weights":[-1.7774325E-2,-2.511826E-1,1.6157219E-1,-8.872944E-3,-3.6080375E-2,3.556887E-2,-7.754222E-4],"categories":[],"categories_nodes":[],"categories_segments":[],"categories_sizes":[],"default_left":[0,0,0,0,0,0,0],"id":68,"left_children":[1,3,5,-1,-1,-1,-1],"loss_changes":[1.6330095E3,5.1720447E2,1.1858694E3,0E0,0E0,0E0,0E0],"parents":[2147483647,0,0,1,1,2,2],"right_children":[2,4,6,-1,-1,-1,-1],"split_conditions":[1E0,1E0,-4.858679E-1,-8.872944E-3,-3.6080375E-2,3.556887E-2,-7.754222E-4],"split_indices":[13,14,10,0,0,0,0],"split_type":[0,0,0,0,0,0,0],"sum_hessian":[3.8990633E4,1.6940121E4,2.2050512E4,1.074476E4,6.195361E3,7.8163003E3,1.4234211E4],"tree_param":{"num_deleted":"0","num_feature":"49","num_nodes":"7","size_leaf_vector":"1"}},{"base_weights":[-1.3802841E-2,6.259878E-2,-5.64246E-1,1.6821176E-2,-2.8897347E-2,-4.6756133E-2,-2.6205419E-2],"categories":[],"categories_nodes":[],"categories_segments":[],"categories_sizes":[],"default_left":[0,0,0,0,0,0,0],"id":69,"left_children":[1,3,5,-1,-1,-1,-1],"loss_changes":[1.6366642E3,2.4757856E3,5.8118652E1,0E0,0E0,0E0,0E0],"parents":[2147483647,0,0,1,1,2,2],"right_children":[2,4,6,-1,-1,-1,-1],"split_conditions":[1E0,1E0,1E0,1.6821176E-2,-2.8897347E-2,-4.6756133E-2,-2.6205419E-2],"split_indices":[42,39,30,0,0,0,0],"split_type":[0,0,0,0,0,0,0],"sum_hessian":[3.8899062E4,3.416572E4,4.733345E3,2.5107355E4,9.058362E3,3.6963252E3,1.0370203E3],"tree_param":{"num_deleted":"0","num_feature":"49","num_nodes":"7","size_leaf_vector":"1"}},{"base_weights":[-6.083052E-3,-6.856965E-2,6.948247E-1,1.0234804E-2,-1.7824685E-2,6.924886E-2,4.395608E-3],"categories":[],"categories_nodes":[],"categories_segments":[],"categories_sizes":[],"default_left":[0,0,0,0,0,0,0],"id":70,"left_children":[1,3,5,-1,-1,-1,-1],"loss_changes":[1.7043102E3,1.2389851E3,4.6249878E2,0E0,0E0,0E0,0E0],"parents":[2147483647,0,0,1,1,2,2],"right_children":[2,4,6,-1,-1,-1,-1],"split_conditions":[1.5E0,-4.418829E-1,1E0,1.0234804E-2,-1.7824685E-2,6.924886E-2,4.395608E-3],"split_indices":[3,1,39,0,0,0,0],"split_type":[0,0,0,0,0,0,0],"sum_hessian":[3.8892676E4,3.5717453E4,3.1752234E3,1.61439795E4,1.9573473E4,2.3328733E3,8.4235016E2],"tree_param":{"num_deleted":"0","num_feature":"49","num_nodes":"7","size_leaf_vector":"1"}},{"base_weights":[-1.6791258E-2,1.6241586E-1,-2.43821E-1,3.0554324E-2,-2.5070622E-3,-1.2627053E-2,-4.7353476E-2],"categories":[],"categories_nodes":[],"categories_segments":[],"categories_sizes":[],"default_left":[0,0,0,0,0,0,0],"id":71,"left_children":[1,3,5,-1,-1,-1,-1],"loss_changes":[1.5779976E3,1.0400894E3,4.9930884E2,0E0,0E0,0E0,0E0],"parents":[2147483647,0,0,1,1,2,2],"right_children":[2,4,6,-1,-1,-1,-1],"split_conditions":[1E0,-3.7828895E-1,1E0,3.0554324E-2,-2.5070622E-3,-1.2627053E-2,-4.7353476E-2],"split_indices":[19,10,23,0,0,0,0],"split_type":[0,0,0,0,0,0,0],"sum_hessian":[3.8765668E4,2.1666191E4,1.7099477E4,9.620886E3,1.2045306E4,1.4324703E4,2.7747727E3],"tree_param":{"num_deleted":"0","num_feature":"49","num_nodes":"7","size_leaf_vector":"1"}},{"base_weights":[-1.4581531E-2,7.514119E-2,-4.7526982E-1,1.3667977E-2,-2.2576941E-2,-3.8024075E-2,6.2290807E-3],"categories":[],"categories_nodes":[],"categories_segments":[],"categories_sizes":[],"default_left":[0,0,0,0,0,0,0],"id":72,"left_children":[1,3,5,-1,-1,-1,-1],"loss_changes":[1.6001351E3,1.3059678E3,1.12171265E2,0E0,0E0,0E0,0E0],"parents":[2147483647,0,0,1,1,2,2],"right_children":[2,4,6,-1,-1,-1,-1],"split_conditions":[1E0,1E0,1.78125E0,1.3667977E-2,-2.2576941E-2,-3.8024075E-2,6.2290807E-3],"split_indices":[16,39,12,0,0,0,0],"split_type":[0,0,0,0,0,0,0],"sum_hessian":[3.869348E4,3.2393045E4,6.300435E3,2.5218299E4,7.1747456E3,5.9626245E3,3.3781088E2],"tree_param":{"num_deleted":"0","num_feature":"49","num_nodes":"7","size_leaf_vector":"1"}},{"base_weights":[-1.28570935E-2,1.3592046E-1,-2.899678E-1,-2.413678E-2,1.9986484E-2,1.4038754E-2,-2.82602E-2],"categories":[],"categories_nodes":[],"categories_segments":[],"categories_sizes":[],"default_left":[0,0,0,0,0,0,0],"id":73,"left_children":[1,3,5,-1,-1,-1,-1],"loss_changes":[1.5926466E3,1.5031321E3,5.59839E2,0E0,0E0,0E0,0E0],"parents":[2147483647,0,0,1,1,2,2],"right_children":[2,4,6,-1,-1,-1,-1],"split_conditions":[1E0,0E0,-8.5714287E-1,-2.413678E-2,1.9986484E-2,1.4038754E-2,-2.82602E-2],"split_indices":[14,3,11,0,0,0,0],"split_type":[0,0,0,0,0,0,0],"sum_hessian":[3.861079E4,2.5126016E4,1.3484773E4,5.573064E3,1.9552951E4,2.0744216E3,1.1410353E4],"tree_param":{"num_deleted":"0","num_feature":"49","num_nodes":"7","size_leaf_vector":"1"}},{"base_weights":[-1.1726241E-2,8.778193E-2,-4.058596E-1,-8.351678E-3,2.3744151E-2,-5.763421E-3,-3.9154142E-2],"categories":[],"categories_nodes":[],"categories_segments":[],"categories_sizes":[],"default_left":[0,0,0,0,0,0,0],"id":74,"left_children":[1,3,5,-1,-1,-1,-1],"loss_changes":[1.5125605E3,1.4034188E3,2.9680603E2,0E0,0E0,0E0,0E0],"parents":[2147483647,0,0,1,1,2,2],"right_children":[2,4,6,-1,-1,-1,-1],"split_conditions":[1.02582544E-1,4E-1,-3.7828895E-1,-8.351678E-3,2.3744151E-2,-5.763421E-3,-3.9154142E-2],"split_indices":[5,0,10,0,0,0,0],"split_type":[0,0,0,0,0,0,0],"sum_hessian":[3.8547473E4,3.0783285E4,7.764187E3,1.646148E4,1.4321806E4,2.030718E3,5.7334688E3],"tree_param":{"num_deleted":"0","num_feature":"49","num_nodes":"7","size_leaf_vector":"1"}},{"base_weights":[-6.8179537E-3,-2.3046222E-1,1.5959464E-1,-9.199192E-3,-3.9558545E-2,-1.8981874E-2,2.1762397E-2],"categories":[],"categories_nodes":[],"categories_segments":[],"categories_sizes":[],"default_left":[0,0,0,0,0,0,0],"id":75,"left_children":[1,3,5,-1,-1,-1,-1],"loss_changes":[1.4327737E3,5.252098E2,1.1901503E3,0E0,0E0,0E0,0E0],"parents":[2147483647,0,0,1,1,2,2],"right_children":[2,4,6,-1,-1,-1,-1],"split_conditions":[1E0,1E0,-1.3636364E-1,-9.199192E-3,-3.9558545E-2,-1.8981874E-2,2.1762397E-2],"split_indices":[13,40,2,0,0,0,0],"split_type":[0,0,0,0,0,0,0],"sum_hessian":[3.8477715E4,1.6414365E4,2.206335E4,1.2053165E4,4.3612007E3,5.300623E3,1.6762727E4],"tree_param":{"num_deleted":"0","num_feature":"49","num_nodes":"7","size_leaf_vector":"1"}},{"base_weights":[-5.484805E-3,-5.248941E-2,7.8039044E-1,1.706685E-3,-3.7822053E-2,7.258299E-2,2.183383E-2],"categories":[],"categories_nodes":[],"categories_segments":[],"categories_sizes":[],"default_left":[0,0,0,0,0,0,0],"id":76,"left_children":[1,3,5,-1,-1,-1,-1],"loss_changes":[1.4208724E3,1.233926E3,1.9620447E2,0E0,0E0,0E0,0E0],"parents":[2147483647,0,0,1,1,2,2],"right_children":[2,4,6,-1,-1,-1,-1],"split_conditions":[2E0,1E0,1E0,1.706685E-3,-3.7822053E-2,7.258299E-2,2.183383E-2],"split_indices":[20,23,39,0,0,0,0],"split_type":[0,0,0,0,0,0,0],"sum_hessian":[3.84435E4,3.6282695E4,2.160801E3,3.1110873E4,5.1718237E3,1.5553497E3,6.054512E2],"tree_param":{"num_deleted":"0","num_feature":"49","num_nodes":"7","size_leaf_vector":"1"}},{"base_weights":[-1.8291607E-2,6.47523E-2,-4.6174586E-1,1.803756E-2,-1.1567051E-2,-2.4967553E-2,-5.0627384E-2],"categories":[],"categories_nodes":[],"categories_segments":[],"categories_sizes":[],"default_left":[0,0,0,0,0,0,0],"id":77,"left_children":[1,3,5,-1,-1,-1,-1],"loss_changes":[1.4118038E3,1.2431417E3,1.639237E2,0E0,0E0,0E0,0E0],"parents":[2147483647,0,0,1,1,2,2],"right_children":[2,4,6,-1,-1,-1,-1],"split_conditions":[1E0,1E0,1E0,1.803756E-2,-1.1567051E-2,-2.4967553E-2,-5.0627384E-2],"split_indices":[16,19,19,0,0,0,0],"split_type":[0,0,0,0,0,0,0],"sum_hessian":[3.8318848E4,3.2282055E4,6.036792E3,1.7908268E4,1.4373785E4,3.7793257E3,2.2574663E3],"tree_param":{"num_deleted":"0","num_feature":"49","num_nodes":"7","size_leaf_vector":"1"}},{"base_weights":[-6.439256E-3,-4.7541738E-2,8.6632496E-1,1.3835873E-3,-3.9852615E-2,7.0059694E-2,-1.8119434E-2],"categories":[],"categories_nodes":[],"categories_segments":[],"categories_sizes":[],"default_left":[0,0,0,0,0,0,0],"id":78,"left_children":[1,3,5,-1,-1,-1,-1],"loss_changes":[1.3744681E3,1.1683352E3,1.3171216E2,0E0,0E0,0E0,0E0],"parents":[2147483647,0,0,1,1,2,2],"right_children":[2,4,6,-1,-1,-1,-1],"split_conditions":[1E0,1E0,1E0,1.3835873E-3,-3.9852615E-2,7.0059694E-2,-1.8119434E-2],"split_indices":[28,42,42,0,0,0,0],"split_type":[0,0,0,0,0,0,0],"sum_hessian":[3.8293594E4,3.6580316E4,1.71328E3,3.2198367E4,4.381948E3,1.6159528E3,9.732722E1],"tree_param":{"num_deleted":"0","num_feature":"49","num_nodes":"7","size_leaf_vector":"1"}},{"base_weights":[-4.43714E-3,1.3271432E-1,-2.6688895E-1,2.7885573E-2,-5.1643765E-3,-3.4477618E-2,-5.0766836E-3],"categories":[],"categories_nodes":[],"categories_segments":[],"categories_sizes":[],"default_left":[0,0,0,0,0,0,0],"id":79,"left_children":[1,3,5,-1,-1,-1,-1],"loss_changes":[1.3775038E3,1.2115964E3,5.0416052E2,0E0,0E0,0E0,0E0],"parents":[2147483647,0,0,1,1,2,2],"right_children":[2,4,6,-1,-1,-1,-1],"split_conditions":[1E0,-4.766963E-1,1E0,2.7885573E-2,-5.1643765E-3,-3.4477618E-2,-5.0766836E-3],"split_indices":[14,1,47,0,0,0,0],"split_type":[0,0,0,0,0,0,0],"sum_hessian":[3.824878E4,2.5124318E4,1.3124464E4,1.1488687E4,1.3635632E4,6.6625083E3,6.4619556E3],"tree_param":{"num_deleted":"0","num_feature":"49","num_nodes":"7","size_leaf_vector":"1"}},{"base_weights":[-6.918846E-3,6.823205E-2,-4.2342123E-1,1.0600643E-2,-3.506142E-2,-3.8699716E-2,-1.2718781E-2],"categories":[],"categories_nodes":[],"categories_segments":[],"categories_sizes":[],"default_left":[0,0,0,0,0,0,0],"id":80,"left_children":[1,3,5,-1,-1,-1,-1],"loss_changes":[1.1956589E3,1.2681279E3,1.3633289E2,0E0,0E0,0E0,0E0],"parents":[2147483647,0,0,1,1,2,2],"right_children":[2,4,6,-1,-1,-1,-1],"split_conditions":[1E0,1E0,1E0,1.0600643E-2,-3.506142E-2,-3.8699716E-2,-1.2718781E-2],"split_indices":[16,42,30,0,0,0,0],"split_type":[0,0,0,0,0,0,0],"sum_hessian":[3.8180094E4,3.2351217E4,5.8288755E3,2.8472861E4,3.8783547E3,4.2636035E3,1.5652719E3],"tree_param":{"num_deleted":"0","num_feature":"49","num_nodes":"7","size_leaf_vector":"1"}},{"base_weights":[-9.930416E-4,1.21700354E-1,-2.8949675E-1,-1.3983069E-2,2.10434E-2,-1.394794E-2,-4.2466424E-2],"categories":[],"categories_nodes":[],"categories_segments":[],"categories_sizes":[],"default_left":[0,0,0,0,0,0,0],"id":81,"left_children":[1,3,5,-1,-1,-1,-1],"loss_changes":[1.3519772E3,1.3124618E3,3.254248E2,0E0,0E0,0E0,0E0],"parents":[2147483647,0,0,1,1,2,2],"right_children":[2,4,6,-1,-1,-1,-1],"split_conditions":[1E0,0E0,7.1824886E-2,-1.3983069E-2,2.10434E-2,-1.394794E-2,-4.2466424E-2],"split_indices":[40,0,5,0,0,0,0],"split_type":[0,0,0,0,0,0,0],"sum_hessian":[3.817419E4,2.6787795E4,1.13863955E4,9.112517E3,1.7675277E4,8.298554E3,3.0878416E3],"tree_param":{"num_deleted":"0","num_feature":"49","num_nodes":"7","size_leaf_vector":"1"}},{"base_weights":[-4.9863276E-3,6.70805E-2,-4.4906175E-1,1.0858509E-2,-2.7131803E-2,-3.7165206E-2,1.6138537E-2],"categories":[],"categories_nodes":[],"categories_segments":[],"categories_sizes":[],"default_left":[0,0,0,0,0,0,0],"id":82,"left_children":[1,3,5,-1,-1,-1,-1],"loss_changes":[1.2202428E3,1.0936277E3,1.6541223E2,0E0,0E0,0E0,0E0],"parents":[2147483647,0,0,1,1,2,2],"right_children":[2,4,6,-1,-1,-1,-1],"split_conditions":[1E0,1E0,2E0,1.0858509E-2,-2.7131803E-2,-3.7165206E-2,1.6138537E-2],"split_indices":[23,16,20,0,0,0,0],"split_type":[0,0,0,0,0,0,0],"sum_hessian":[3.8109473E4,3.2795707E4,5.313766E3,2.7770664E4,5.0250444E3,4.968668E3,3.4509775E2],"tree_param":{"num_deleted":"0","num_feature":"49","num_nodes":"7","size_leaf_vector":"1"}},{"base_weights":[-4.512209E-3,1.2164388E-1,-2.5185862E-1,-2.0834537E-2,1.712551E-2,-2.4886232E-2,2.0293212E-2],"categories":[],"categories_nodes":[],"categories_segments":[],"categories_sizes":[],"default_left":[0,0,0,0,0,0,0],"id":83,"left_children":[1,3,5,-1,-1,-1,-1],"loss_changes":[1.1876847E3,1.0748754E3,5.3792053E2,0E0,0E0,0E0,0E0],"parents":[2147483647,0,0,1,1,2,2],"right_children":[2,4,6,-1,-1,-1,-1],"split_conditions":[1E0,0E0,1.5E0,-2.0834537E-2,1.712551E-2,-2.4886232E-2,2.0293212E-2],"split_indices":[14,3,3,0,0,0,0],"split_type":[0,0,0,0,0,0,0],"sum_hessian":[3.8041805E4,2.5195979E4,1.2845826E4,5.3080913E3,1.9887889E4,1.1143917E4,1.7019093E3],"tree_param":{"num_deleted":"0","num_feature":"49","num_nodes":"7","size_leaf_vector":"1"}},{"base_weights":[-9.031266E-3,-1.7100036E-1,1.6481619E-1,-2.1458473E-2,7.175793E-3,1.6859364E-2,-2.4080819E-2],"categories":[],"categories_nodes":[],"categories_segments":[],"categories_sizes":[],"default_left":[0,0,0,0,0,0,0],"id":84,"left_children":[1,3,5,-1,-1,-1,-1],"loss_changes":[1.0691577E3,6.036817E2,5.344148E2,0E0,0E0,0E0,0E0],"parents":[2147483647,0,0,1,1,2,2],"right_children":[2,4,6,-1,-1,-1,-1],"split_conditions":[1E0,6E-1,1E0,-2.1458473E-2,7.175793E-3,1.6859364E-2,-2.4080819E-2],"split_indices":[47,0,33,0,0,0,0],"split_type":[0,0,0,0,0,0,0],"sum_hessian":[3.7950055E4,1.964629E4,1.8303766E4,1.3722276E4,5.9240127E3,1.6297491E4,2.0062744E3],"tree_param":{"num_deleted":"0","num_feature":"49","num_nodes":"7","size_leaf_vector":"1"}},{"base_weights":[-7.088831E-3,7.539597E-2,-3.5577038E-1,3.5041004E-2,-4.4862056E-4,-4.805947E-3,-3.4680024E-2],"categories":[],"categories_nodes":[],"categories_segments":[],"categories_sizes":[],"default_left":[0,0,0,0,0,0,0],"id":85,"left_children":[1,3,5,-1,-1,-1,-1],"loss_changes":[1.0905078E3,9.777345E2,2.2531195E2,0E0,0E0,0E0,0E0],"parents":[2147483647,0,0,1,1,2,2],"right_children":[2,4,6,-1,-1,-1,-1],"split_conditions":[1.02582544E-1,-7.1428573E-1,-3.7828895E-1,3.5041004E-2,-4.4862056E-4,-4.805947E-3,-3.4680024E-2],"split_indices":[5,11,10,0,0,0,0],"split_type":[0,0,0,0,0,0,0],"sum_hessian":[3.789697E4,3.065338E4,7.2435874E3,5.263453E3,2.5389928E4,1.9433829E3,5.3002046E3],"tree_param":{"num_deleted":"0","num_feature":"49","num_nodes":"7","size_leaf_vector":"1"}},{"base_weights":[-5.3672944E-3,-2.1359742E-1,1.4548352E-1,-2.4363808E-2,2.918964E-4,-1.8151512E-2,1.855178E-2],"categories":[],"categories_nodes":[],"categories_segments":[],"categories_sizes":[],"default_left":[0,0,0,0,0,0,0],"id":86,"left_children":[1,3,5,-1,-1,-1,-1],"loss_changes":[1.189479E3,3.8493146E2,8.6747705E2,0E0,0E0,0E0,0E0],"parents":[2147483647,0,0,1,1,2,2],"right_children":[2,4,6,-1,-1,-1,-1],"split_conditions":[1E0,6E-1,-1.6363636E-1,-2.4363808E-2,2.918964E-4,-1.8151512E-2,1.855178E-2],"split_indices":[13,0,2,0,0,0,0],"split_type":[0,0,0,0,0,0,0],"sum_hessian":[3.7847516E4,1.5898091E4,2.1949426E4,1.0514581E4,5.38351E3,4.5663423E3,1.7383082E4],"tree_param":{"num_deleted":"0","num_feature":"49","num_nodes":"7","size_leaf_vector":"1"}},{"base_weights":[-7.875918E-3,1.00343876E-1,-2.716098E-1,-1.2097153E-2,1.7299902E-2,-2.3354232E-2,2.9334469E-2],"categories":[],"categories_nodes":[],"categories_segments":[],"categories_sizes":[],"default_left":[0,0,0,0,0,0,0],"id":87,"left_children":[1,3,5,-1,-1,-1,-1],"loss_changes":[1.0783053E3,9.137986E2,2.910113E2,0E0,0E0,0E0,0E0],"parents":[2147483647,0,0,1,1,2,2],"right_children":[2,4,6,-1,-1,-1,-1],"split_conditions":[1E0,0E0,2E0,-1.2097153E-2,1.7299902E-2,-2.3354232E-2,2.9334469E-2],"split_indices":[40,0,20,0,0,0,0],"split_type":[0,0,0,0,0,0,0],"sum_hessian":[3.776107E4,2.6778893E4,1.0982178E4,8.902817E3,1.7876074E4,1.0365313E4,6.168642E2],"tree_param":{"num_deleted":"0","num_feature":"49","num_nodes":"7","size_leaf_vector":"1"}},{"base_weights":[-1.6373454E-3,2.661883E-1,-1.1064399E-1,4.1414168E-2,9.905809E-3,2.7029119E-3,-2.2335311E-2],"categories":[],"categories_nodes":[],"categories_segments":[],"categories_sizes":[],"default_left":[0,0,0,0,0,0,0],"id":88,"left_children":[1,3,5,-1,-1,-1,-1],"loss_changes":[1.1027101E3,4.183465E2,7.370797E2,0E0,0E0,0E0,0E0],"parents":[2147483647,0,0,1,1,2,2],"right_children":[2,4,6,-1,-1,-1,-1],"split_conditions":[-1.0482357E0,-4.858679E-1,1E0,4.1414168E-2,9.905809E-3,2.7029119E-3,-2.2335311E-2],"split_indices":[1,10,19,0,0,0,0],"split_type":[0,0,0,0,0,0,0],"sum_hessian":[3.775071E4,1.0916014E4,2.6834697E4,3.474733E3,7.4412812E3,1.5048684E4,1.1786013E4],"tree_param":{"num_deleted":"0","num_feature":"49","num_nodes":"7","size_leaf_vector":"1"}},{"base_weights":[-5.412021E-3,9.72952E-2,-3.544132E-1,2.0677492E-2,-6.1639952E-3,-2.9955814E-2,1.631862E-2],"categories":[],"categories_nodes":[],"categories_segments":[],"categories_sizes":[],"default_left":[0,0,0,0,0,0,0],"id":89,"left_children":[1,3,5,-1,-1,-1,-1],"loss_changes":[1.3521481E3,9.3347644E2,2.216283E2,0E0,0E0,0E0,0E0],"parents":[2147483647,0,0,1,1,2,2],"right_children":[2,4,6,-1,-1,-1,-1],"split_conditions":[1E0,-2.864383E-1,2E0,2.0677492E-2,-6.1639952E-3,-2.9955814E-2,1.631862E-2],"split_indices":[39,1,20,0,0,0,0],"split_type":[0,0,0,0,0,0,0],"sum_hessian":[3.7702523E4,2.9135482E4,8.567041E3,1.4608896E4,1.4526586E4,7.9450386E3,6.22002E2],"tree_param":{"num_deleted":"0","num_feature":"49","num_nodes":"7","size_leaf_vector":"1"}},{"base_weights":[6.264253E-4,9.735802E-2,-3.3739725E-1,-1.4781973E-3,2.7209321E-2,-3.9868057E-2,-1.5146627E-2],"categories":[],"categories_nodes":[],"categories_segments":[],"categories_sizes":[],"default_left":[0,0,0,0,0,0,0],"id":90,"left_children":[1,3,5,-1,-1,-1,-1],"loss_changes":[1.2318685E3,9.1028015E2,2.193836E2,0E0,0E0,0E0,0E0],"parents":[2147483647,0,0,1,1,2,2],"right_children":[2,4,6,-1,-1,-1,-1],"split_conditions":[1E0,1E0,1E0,-1.4781973E-3,2.7209321E-2,-3.9868057E-2,-1.5146627E-2],"split_indices":[39,30,13,0,0,0,0],"split_type":[0,0,0,0,0,0,0],"sum_hessian":[3.765458E4,2.9282096E4,8.372482E3,2.0326496E4,8.9556E3,3.4282795E3,4.9442026E3],"tree_param":{"num_deleted":"0","num_feature":"49","num_nodes":"7","size_leaf_vector":"1"}},{"base_weights":[-3.466672E-3,5.6257218E-2,-4.8690358E-1,-1.62934E-2,1.3937544E-2,-2.9377671E-2,-5.402015E-2],"categories":[],"categories_nodes":[],"categories_segments":[],"categories_sizes":[],"default_left":[0,0,0,0,0,0,0],"id":91,"left_children":[1,3,5,-1,-1,-1,-1],"loss_changes":[1.0862139E3,1.1870844E3,8.908081E1,0E0,0E0,0E0,0E0],"parents":[2147483647,0,0,1,1,2,2],"right_children":[2,4,6,-1,-1,-1,-1],"split_conditions":[1E0,-1.8181818E-2,1E0,-1.62934E-2,1.3937544E-2,-2.9377671E-2,-5.402015E-2],"split_indices":[42,2,14,0,0,0,0],"split_type":[0,0,0,0,0,0,0],"sum_hessian":[3.760126E4,3.3474637E4,4.126627E3,1.0758817E4,2.2715818E4,2.949971E3,1.1766559E3],"tree_param":{"num_deleted":"0","num_feature":"49","num_nodes":"7","size_leaf_vector":"1"}},{"base_weights":[-3.7934026E-3,9.999279E-2,-2.5850657E-1,-1.153242E-2,1.6648173E-2,-1.4546862E-2,-4.6759497E-2],"categories":[],"categories_nodes":[],"categories_segments":[],"categories_sizes":[],"default_left":[0,0,0,0,0,0,0],"id":92,"left_children":[1,3,5,-1,-1,-1,-1],"loss_changes":[9.928037E2,8.26301E2,2.5491156E2,0E0,0E0,0E0,0E0],"parents":[2147483647,0,0,1,1,2,2],"right_children":[2,4,6,-1,-1,-1,-1],"split_conditions":[1E0,0E0,1E0,-1.153242E-2,1.6648173E-2,-1.4546862E-2,-4.6759497E-2],"split_indices":[40,0,16,0,0,0,0],"split_type":[0,0,0,0,0,0,0],"sum_hessian":[3.7535625E4,2.6673312E4,1.0862314E4,8.658535E3,1.8014777E4,9.242865E3,1.6194486E3],"tree_param":{"num_deleted":"0","num_feature":"49","num_nodes":"7","size_leaf_vector":"1"}},{"base_weights":[-1.029871E-2,-5.9015222E-2,4.8821953E-1,-7.1250065E-3,4.0100053E-2,4.4944532E-2,1.9620078E-2],"categories":[],"categories_nodes":[],"categories_segments":[],"categories_sizes":[],"default_left":[0,0,0,0,0,0,0],"id":93,"left_children":[1,3,5,-1,-1,-1,-1],"loss_changes":[9.115311E2,7.309265E2,8.2513245E1,0E0,0E0,0E0,0E0],"parents":[2147483647,0,0,1,1,2,2],"right_children":[2,4,6,-1,-1,-1,-1],"split_conditions":[1.5E0,2E0,-8.874668E-2,-7.1250065E-3,4.0100053E-2,4.4944532E-2,1.9620078E-2],"split_indices":[3,20,4,0,0,0,0],"split_type":[0,0,0,0,0,0,0],"sum_hessian":[3.7511223E4,3.417989E4,3.3313323E3,3.2234463E4,1.9454264E3,2.2247722E3,1.1065602E3],"tree_param":{"num_deleted":"0","num_feature":"49","num_nodes":"7","size_leaf_vector":"1"}},{"base_weights":[-1.3327679E-3,5.3040523E-2,-4.5552662E-1,9.160923E-3,-2.8182043E-2,-2.391185E-2,-4.5414187E-2],"categories":[],"categories_nodes":[],"categories_segments":[],"categories_sizes":[],"default_left":[0,0,0,0,0,0,0],"id":94,"left_children":[1,3,5,-1,-1,-1,-1],"loss_changes":[9.241934E2,9.908297E2,8.010974E1,0E0,0E0,0E0,0E0],"parents":[2147483647,0,0,1,1,2,2],"right_children":[2,4,6,-1,-1,-1,-1],"split_conditions":[1E0,1E0,7.3636365E-1,9.160923E-3,-2.8182043E-2,-2.391185E-2,-4.5414187E-2],"split_indices":[42,23,2,0,0,0,0],"split_type":[0,0,0,0,0,0,0],"sum_hessian":[3.7402992E4,3.3411953E4,3.991041E3,2.8780818E4,4.6311333E3,2.1044028E3,1.8866381E3],"tree_param":{"num_deleted":"0","num_feature":"49","num_nodes":"7","size_leaf_vector":"1"}},{"base_weights":[-5.0338972E-3,8.892111E-2,-3.3531293E-1,2.0817513E-2,-1.7815158E-2,-2.2060364E-2,-6.326913E-2],"categories":[],"categories_nodes":[],"categories_segments":[],"categories_sizes":[],"default_left":[0,0,0,0,0,0,0],"id":95,"left_children":[1,3,5,-1,-1,-1,-1],"loss_changes":[1.1601145E3,1.7931384E3,1.7079639E2,0E0,0E0,0E0,0E0],"parents":[2147483647,0,0,1,1,2,2],"right_children":[2,4,6,-1,-1,-1,-1],"split_conditions":[1E0,1E0,1E0,2.0817513E-2,-1.7815158E-2,-2.2060364E-2,-6.326913E-2],"split_indices":[39,40,37,0,0,0,0],"split_type":[0,0,0,0,0,0,0],"sum_hessian":[3.7365613E4,2.909595E4,8.269663E3,1.84411E4,1.065485E4,7.6645547E3,6.0510864E2],"tree_param":{"num_deleted":"0","num_feature":"49","num_nodes":"7","size_leaf_vector":"1"}},{"base_weights":[-3.273136E-3,-3.8759366E-2,7.0038664E-1,1.12019E-3,-3.0176803E-2,6.2495027E-2,7.1753026E-3],"categories":[],"categories_nodes":[],"categories_segments":[],"categories_sizes":[],"default_left":[0,0,0,0,0,0,0],"id":96,"left_children":[1,3,5,-1,-1,-1,-1],"loss_changes":[9.3263196E2,6.9423157E2,1.432915E2,0E0,0E0,0E0,0E0],"parents":[2147483647,0,0,1,1,2,2],"right_children":[2,4,6,-1,-1,-1,-1],"split_conditions":[1E0,1E0,1E0,1.12019E-3,-3.0176803E-2,6.2495027E-2,7.1753026E-3],"split_indices":[28,23,40,0,0,0,0],"split_type":[0,0,0,0,0,0,0],"sum_hessian":[3.732888E4,3.5545723E4,1.7831553E3,3.098023E4,4.5654927E3,1.4588156E3,3.2433978E2],"tree_param":{"num_deleted":"0","num_feature":"49","num_nodes":"7","size_leaf_vector":"1"}},{"base_weights":[-7.832486E-3,7.763349E-2,-3.1559113E-1,2.362788E-2,-2.4362737E-3,3.792297E-4,-2.9477559E-2],"categories":[],"categories_nodes":[],"categories_segments":[],"categories_sizes":[],"default_left":[0,0,0,0,0,0,0],"id":97,"left_children":[1,3,5,-1,-1,-1,-1],"loss_changes":[9.810388E2,7.632484E2,2.0131927E2,0E0,0E0,0E0,0E0],"parents":[2147483647,0,0,1,1,2,2],"right_children":[2,4,6,-1,-1,-1,-1],"split_conditions":[1E0,-1.0007639E0,-7.1428573E-1,2.362788E-2,-2.4362737E-3,3.792297E-4,-2.9477559E-2],"split_indices":[39,1,11,0,0,0,0],"split_type":[0,0,0,0,0,0,0],"sum_hessian":[3.7278438E4,2.9181953E4,8.096484E3,9.240808E3,1.9941146E4,1.5768767E3,6.5196074E3],"tree_param":{"num_deleted":"0","num_feature":"49","num_nodes":"7","size_leaf_vector":"1"}},{"base_weights":[1.1666408E-3,8.157018E-2,-2.9566053E-1,2.2500778E-2,-3.5995338E-3,6.061224E-3,-2.6369112E-2],"categories":[],"categories_nodes":[],"categories_segments":[],"categories_sizes":[],"default_left":[0,0,0,0,0,0,0],"id":98,"left_children":[1,3,5,-1,-1,-1,-1],"loss_changes":[8.888235E2,8.295142E2,1.6742017E2,0E0,0E0,0E0,0E0],"parents":[2147483647,0,0,1,1,2,2],"right_children":[2,4,6,-1,-1,-1,-1],"split_conditions":[1E0,-4.858679E-1,-8.5714287E-1,2.2500778E-2,-3.5995338E-3,6.061224E-3,-2.6369112E-2],"split_indices":[39,10,11,0,0,0,0],"split_type":[0,0,0,0,0,0,0],"sum_hessian":[3.722222E4,2.9294322E4,7.9278955E3,1.0901548E4,1.8392775E4,1.0248263E3,6.903069E3],"tree_param":{"num_deleted":"0","num_feature":"49","num_nodes":"7","size_leaf_vector":"1"}},{"base_weights":[-3.802881E-3,-2.0207866E-1,1.3697092E-1,-8.858669E-3,-3.4325626E-2,1.4475754E-2,-2.855888E-2],"categories":[],"categories_nodes":[],"categories_segments":[],"categories_sizes":[],"default_left":[0,0,0,0,0,0,0],"id":99,"left_children":[1,3,5,-1,-1,-1,-1],"loss_changes":[1.0372261E3,3.305763E2,6.312683E2,0E0,0E0,0E0,0E0],"parents":[2147483647,0,0,1,1,2,2],"right_children":[2,4,6,-1,-1,-1,-1],"split_conditions":[1E0,1E0,1E0,-8.858669E-3,-3.4325626E-2,1.4475754E-2,-2.855888E-2],"split_indices":[13,40,42,0,0,0,0],"split_type":[0,0,0,0,0,0,0],"sum_hessian":[3.7140617E4,1.5419021E4,2.1721594E4,1.1617355E4,3.8016653E3,1.9605836E4,2.1157583E3],"tree_param":{"num_deleted":"0","num_feature":"49","num_nodes":"7","size_leaf_vector":"1"}},{"base_weights":[-4.3202247E-4,5.3373165E-2,-4.585824E-1,1.3458919E-2,-1.6496152E-2,-1.4529411E-2,-4.0483113E-2],"categories":[],"categories_nodes":[],"categories_segments":[],"categories_sizes":[],"default_left":[0,0,0,0,0,0,0],"id":100,"left_children":[1,3,5,-1,-1,-1,-1],"loss_changes":[9.1656525E2,1.1470302E3,8.298743E1,0E0,0E0,0E0,0E0],"parents":[2147483647,0,0,1,1,2,2],"right_children":[2,4,6,-1,-1,-1,-1],"split_conditions":[1E0,1E0,1E0,1.3458919E-2,-1.6496152E-2,-1.4529411E-2,-4.0483113E-2],"split_indices":[42,40,22,0,0,0,0],"split_type":[0,0,0,0,0,0,0],"sum_hessian":[3.716194E4,3.3264227E4,3.8977163E3,2.2766041E4,1.0498184E4,9.224531E2,2.9752632E3],"tree_param":{"num_deleted":"0","num_feature":"49","num_nodes":"7","size_leaf_vector":"1"}},{"base_weights":[1.3575311E-3,6.387359E-2,-3.6634418E-1,8.751796E-3,-2.7943943E-2,-3.465114E-2,-1.0102814E-2],"categories":[],"categories_nodes":[],"categories_segments":[],"categories_sizes":[],"default_left":[0,0,0,0,0,0,0],"id":101,"left_children":[1,3,5,-1,-1,-1,-1],"loss_changes":[8.5275037E2,7.3133356E2,1.1884033E2,0E0,0E0,0E0,0E0],"parents":[2147483647,0,0,1,1,2,2],"right_children":[2,4,6,-1,-1,-1,-1],"split_conditions":[1E0,1E0,1E0,8.751796E-3,-2.7943943E-2,-3.465114E-2,-1.0102814E-2],"split_indices":[16,42,25,0,0,0,0],"split_type":[0,0,0,0,0,0,0],"sum_hessian":[3.707647E4,3.1695854E4,5.3806157E3,2.8280846E4,3.415007E3,3.8008564E3,1.5797593E3],"tree_param":{"num_deleted":"0","num_feature":"49","num_nodes":"7","size_leaf_vector":"1"}},{"base_weights":[-5.7649133E-3,1.0746435E-1,-2.3073287E-1,1.3721765E-2,-1.7605685E-2,2.8613734E-3,-2.5335321E-2],"categories":[],"categories_nodes":[],"categories_segments":[],"categories_sizes":[],"default_left":[0,0,0,0,0,0,0],"id":102,"left_children":[1,3,5,-1,-1,-1,-1],"loss_changes":[9.4539636E2,6.3822833E2,3.5786224E2,0E0,0E0,0E0,0E0],"parents":[2147483647,0,0,1,1,2,2],"right_children":[2,4,6,-1,-1,-1,-1],"split_conditions":[1E0,1.02582544E-1,1E0,1.3721765E-2,-1.7605685E-2,2.8613734E-3,-2.5335321E-2],"split_indices":[14,5,15,0,0,0,0],"split_type":[0,0,0,0,0,0,0],"sum_hessian":[3.709399E4,2.4678305E4,1.2415685E4,2.0221906E4,4.456399E3,3.5377917E3,8.877894E3],"tree_param":{"num_deleted":"0","num_feature":"49","num_nodes":"7","size_leaf_vector":"1"}},{"base_weights":[-9.4517303E-4,1.285844E-1,-1.8082382E-1,1.5741397E-2,-1.4713208E-2,3.742351E-3,-1.930375E-2],"categories":[],"categories_nodes":[],"categories_segments":[],"categories_sizes":[],"default_left":[0,0,0,0,0,0,0],"id":103,"left_children":[1,3,5,-1,-1,-1,-1],"loss_changes":[8.638818E2,5.6954346E2,2.7430484E2,0E0,0E0,0E0,0E0],"parents":[2147483647,0,0,1,1,2,2],"right_children":[2,4,6,-1,-1,-1,-1],"split_conditions":[1E0,1E0,-1.1186255E0,1.5741397E-2,-1.4713208E-2,3.742351E-3,-1.930375E-2],"split_indices":[19,39,1,0,0,0,0],"split_type":[0,0,0,0,0,0,0],"sum_hessian":[3.7057125E4,2.1545316E4,1.5511807E4,1.723438E4,4.310935E3,3.865652E3,1.1646154E4],"tree_param":{"num_deleted":"0","num_feature":"49","num_nodes":"7","size_leaf_vector":"1"}},{"base_weights":[-4.5922524E-3,1.005514E-1,-2.183823E-1,3.808087E-2,2.7420865E-3,9.379086E-3,-2.1825772E-2],"categories":[],"categories_nodes":[],"categories_segments":[],"categories_sizes":[],"default_left":[0,0,0,0,0,0,0],"id":104,"left_children":[1,3,5,-1,-1,-1,-1],"loss_changes":[8.315936E2,6.4598553E2,3.045727E2,0E0,0E0,0E0,0E0],"parents":[2147483647,0,0,1,1,2,2],"right_children":[2,4,6,-1,-1,-1,-1],"split_conditions":[1E0,-7.1428573E-1,-8.5714287E-1,3.808087E-2,2.7420865E-3,9.379086E-3,-2.1825772E-2],"split_indices":[14,11,11,0,0,0,0],"split_type":[0,0,0,0,0,0,0],"sum_hessian":[3.6975027E4,2.478893E4,1.2186097E4,3.3571025E3,2.1431826E4,2.125937E3,1.0060159E4],"tree_param":{"num_deleted":"0","num_feature":"49","num_nodes":"7","size_leaf_vector":"1"}},{"base_weights":[-3.084706E-4,6.0936883E-2,-3.723508E-1,8.878726E-3,-2.3795277E-2,-4.1229412E-2,-2.0313608E-2],"categories":[],"categories_nodes":[],"categories_segments":[],"categories_sizes":[],"default_left":[0,0,0,0,0,0,0],"id":105,"left_children":[1,3,5,-1,-1,-1,-1],"loss_changes":[8.419309E2,6.896912E2,9.2543335E1,0E0,0E0,0E0,0E0],"parents":[2147483647,0,0,1,1,2,2],"right_children":[2,4,6,-1,-1,-1,-1],"split_conditions":[1E0,1E0,2E-1,8.878726E-3,-2.3795277E-2,-4.1229412E-2,-2.0313608E-2],"split_indices":[16,33,0,0,0,0,0],"split_type":[0,0,0,0,0,0,0],"sum_hessian":[3.6929746E4,3.1716895E4,5.212851E3,2.7540605E4,4.1762896E3,1.8812438E3,3.3316074E3],"tree_param":{"num_deleted":"0","num_feature":"49","num_nodes":"7","size_leaf_vector":"1"}},{"base_weights":[-1.9153671E-3,-1.782051E-1,1.2063941E-1,4.6557514E-3,-1.8751394E-2,1.40374275E-2,-1.58757E-2],"categories":[],"categories_nodes":[],"categories_segments":[],"categories_sizes":[],"default_left":[0,0,0,0,0,0,0],"id":106,"left_children":[1,3,5,-1,-1,-1,-1],"loss_changes":[7.979628E2,2.615133E2,4.8206967E2,0E0,0E0,0E0,0E0],"parents":[2147483647,0,0,1,1,2,2],"right_children":[2,4,6,-1,-1,-1,-1],"split_conditions":[1E0,-1.1418608E0,3.6927247E-1,4.6557514E-3,-1.8751394E-2,1.40374275E-2,-1.58757E-2],"split_indices":[13,1,5,0,0,0,0],"split_type":[0,0,0,0,0,0,0],"sum_hessian":[3.691397E4,1.5136388E4,2.177758E4,3.4832122E3,1.1653176E4,1.8148746E4,3.628833E3],"tree_param":{"num_deleted":"0","num_feature":"49","num_nodes":"7","size_leaf_vector":"1"}},{"base_weights":[-5.863983E-3,6.903199E-2,-2.8496167E-1,2.2000965E-2,-1.5426794E-3,-1.8373063E-2,-6.04933E-2],"categories":[],"categories_nodes":[],"categories_segments":[],"categories_sizes":[],"default_left":[0,0,0,0,0,0,0],"id":107,"left_children":[1,3,5,-1,-1,-1,-1],"loss_changes":[7.704064E2,5.8410394E2,1.6066919E2,0E0,0E0,0E0,0E0],"parents":[2147483647,0,0,1,1,2,2],"right_children":[2,4,6,-1,-1,-1,-1],"split_conditions":[1E0,-1.0956683E0,1E0,2.2000965E-2,-1.5426794E-3,-1.8373063E-2,-6.04933E-2],"split_indices":[39,1,37,0,0,0,0],"split_type":[0,0,0,0,0,0,0],"sum_hessian":[3.6836332E4,2.9048645E4,7.7876885E3,8.284884E3,2.0763762E4,7.246836E3,5.408524E2],"tree_param":{"num_deleted":"0","num_feature":"49","num_nodes":"7","size_leaf_vector":"1"}},{"base_weights":[-3.0454574E-3,5.9966702E-2,-2.9303512E-1,-1.311943E-2,1.1400271E-2,-3.4609627E-2,-6.66214E-3],"categories":[],"categories_nodes":[],"categories_segments":[],"categories_sizes":[],"default_left":[0,0,0,0,0,0,0],"id":108,"left_children":[1,3,5,-1,-1,-1,-1],"loss_changes":[6.722476E2,6.5364435E2,2.2545508E2,0E0,0E0,0E0,0E0],"parents":[2147483647,0,0,1,1,2,2],"right_children":[2,4,6,-1,-1,-1,-1],"split_conditions":[1.02582544E-1,-2E-1,1.3214079E-1,-1.311943E-2,1.1400271E-2,-3.4609627E-2,-6.66214E-3],"split_indices":[5,0,6,0,0,0,0],"split_type":[0,0,0,0,0,0,0],"sum_hessian":[3.6769754E4,3.0212732E4,6.557024E3,8.502932E3,2.17098E4,3.5864092E3,2.9706147E3],"tree_param":{"num_deleted":"0","num_feature":"49","num_nodes":"7","size_leaf_vector":"1"}},{"base_weights":[-3.4205135E-4,8.8526346E-2,-2.2724159E-1,-6.6807666E-3,1.6628733E-2,-2.4141375E-2,-5.3652306E-4],"categories":[],"categories_nodes":[],"categories_segments":[],"categories_sizes":[],"default_left":[0,0,0,0,0,0,0],"id":109,"left_children":[1,3,5,-1,-1,-1,-1],"loss_changes":[7.427371E2,6.262964E2,2.1591046E2,0E0,0E0,0E0,0E0],"parents":[2147483647,0,0,1,1,2,2],"right_children":[2,4,6,-1,-1,-1,-1],"split_conditions":[1E0,1E0,4.5262146E-1,-6.6807666E-3,1.6628733E-2,-2.4141375E-2,-5.3652306E-4],"split_indices":[40,13,6,0,0,0,0],"split_type":[0,0,0,0,0,0,0],"sum_hessian":[3.6814473E4,2.6457943E4,1.0356527E4,1.13399375E4,1.5118007E4,7.238964E3,3.1175637E3],"tree_param":{"num_deleted":"0","num_feature":"49","num_nodes":"7","size_leaf_vector":"1"}},{"base_weights":[-4.47034E-3,6.756969E-2,-2.764386E-1,1.6898782E-3,3.9499633E-2,-1.7916553E-2,-5.8755476E-2],"categories":[],"categories_nodes":[],"categories_segments":[],"categories_sizes":[],"default_left":[0,0,0,0,0,0,0],"id":110,"left_children":[1,3,5,-1,-1,-1,-1],"loss_changes":[7.2045135E2,6.0098315E2,1.4472388E2,0E0,0E0,0E0,0E0],"parents":[2147483647,0,0,1,1,2,2],"right_children":[2,4,6,-1,-1,-1,-1],"split_conditions":[1E0,1.5E0,1E0,1.6898782E-3,3.9499633E-2,-1.7916553E-2,-5.8755476E-2],"split_indices":[39,3,37,0,0,0,0],"split_type":[0,0,0,0,0,0,0],"sum_hessian":[3.6752074E4,2.9061629E4,7.6904434E3,2.6474875E4,2.5867546E3,7.173791E3,5.166524E2],"tree_param":{"num_deleted":"0","num_feature":"49","num_nodes":"7","size_leaf_vector":"1"}},{"base_weights":[-5.8246143E-3,-4.237083E-2,5.4047704E-1,-2.5736218E-2,1.0758631E-3,4.3079853E-2,-4.2361386E-2],"categories":[],"categories_nodes":[],"categories_segments":[],"categories_sizes":[],"default_left":[0,0,0,0,0,0,0],"id":111,"left_children":[1,3,5,-1,-1,-1,-1],"loss_changes":[7.332162E2,5.872221E2,8.9580444E1,0E0,0E0,0E0,0E0],"parents":[2147483647,0,0,1,1,2,2],"right_children":[2,4,6,-1,-1,-1,-1],"split_conditions":[2E0,-2E-1,1E0,-2.5736218E-2,1.0758631E-3,4.3079853E-2,-4.2361386E-2],"split_indices":[20,2,37,0,0,0,0],"split_type":[0,0,0,0,0,0,0],"sum_hessian":[3.6703133E4,3.441039E4,2.2927446E3,5.451117E3,2.8959271E4,2.2291367E3,6.360792E1],"tree_param":{"num_deleted":"0","num_feature":"49","num_nodes":"7","size_leaf_vector":"1"}},{"base_weights":[9.04376E-4,6.888376E-2,-2.608415E-1,1.6426785E-2,-1.568125E-2,1.2652146E-3,-2.491919E-2],"categories":[],"categories_nodes":[],"categories_segments":[],"categories_sizes":[],"default_left":[0,0,0,0,0,0,0],"id":112,"left_children":[1,3,5,-1,-1,-1,-1],"loss_changes":[6.528824E2,1.2160667E3,1.5008734E2,0E0,0E0,0E0,0E0],"parents":[2147483647,0,0,1,1,2,2],"right_children":[2,4,6,-1,-1,-1,-1],"split_conditions":[1E0,1E0,-7.1428573E-1,1.6426785E-2,-1.568125E-2,1.2652146E-3,-2.491919E-2],"split_indices":[39,40,11,0,0,0,0],"split_type":[0,0,0,0,0,0,0],"sum_hessian":[3.667245E4,2.9117547E4,7.5549014E3,1.8907205E4,1.0210342E4,1.5469337E3,6.007968E3],"tree_param":{"num_deleted":"0","num_feature":"49","num_nodes":"7","size_leaf_vector":"1"}},{"base_weights":[-3.6889908E-3,9.35576E-2,-2.0553316E-1,1.5043988E-2,-8.597586E-3,-2.833692E-2,-3.2873072E-3],"categories":[],"categories_nodes":[],"categories_segments":[],"categories_sizes":[],"default_left":[0,0,0,0,0,0,0],"id":113,"left_children":[1,3,5,-1,-1,-1,-1],"loss_changes":[7.188241E2,5.5093E2,3.3156384E2,0E0,0E0,0E0,0E0],"parents":[2147483647,0,0,1,1,2,2],"right_children":[2,4,6,-1,-1,-1,-1],"split_conditions":[1E0,2.857143E-1,1E0,1.5043988E-2,-8.597586E-3,-2.833692E-2,-3.2873072E-3],"split_indices":[14,11,47,0,0,0,0],"split_type":[0,0,0,0,0,0,0],"sum_hessian":[3.6601355E4,2.4704385E4,1.1896972E4,1.6316596E4,8.387788E3,5.7534053E3,6.1435664E3],"tree_param":{"num_deleted":"0","num_feature":"49","num_nodes":"7","size_leaf_vector":"1"}},{"base_weights":[-9.2800683E-4,1.081054E-1,-1.5598446E-1,5.51204E-3,5.0581757E-2,-8.024518E-3,-3.572597E-2],"categories":[],"categories_nodes":[],"categories_segments":[],"categories_sizes":[],"default_left":[0,0,0,0,0,0,0],"id":114,"left_children":[1,3,5,-1,-1,-1,-1],"loss_changes":[6.176088E2,4.199253E2,2.3620615E2,0E0,0E0,0E0,0E0],"parents":[2147483647,0,0,1,1,2,2],"right_children":[2,4,6,-1,-1,-1,-1],"split_conditions":[1E0,1E0,1E0,5.51204E-3,5.0581757E-2,-8.024518E-3,-3.572597E-2],"split_indices":[19,28,23,0,0,0,0],"split_type":[0,0,0,0,0,0,0],"sum_hessian":[3.6511234E4,2.1438809E4,1.5072426E4,2.0214652E4,1.2241565E3,1.3084792E4,1.9876339E3],"tree_param":{"num_deleted":"0","num_feature":"49","num_nodes":"7","size_leaf_vector":"1"}},{"base_weights":[-1.3557812E-3,4.6877895E-2,-4.241282E-1,9.73575E-3,-1.780696E-2,1.1255208E-2,-3.3740483E-2],"categories":[],"categories_nodes":[],"categories_segments":[],"categories_sizes":[],"default_left":[0,0,0,0,0,0,0],"id":115,"left_children":[1,3,5,-1,-1,-1,-1],"loss_changes":[7.445722E2,7.730581E2,5.5949768E1,0E0,0E0,0E0,0E0],"parents":[2147483647,0,0,1,1,2,2],"right_children":[2,4,6,-1,-1,-1,-1],"split_conditions":[1E0,1E0,-9.88684E-1,9.73575E-3,-1.780696E-2,1.1255208E-2,-3.3740483E-2],"split_indices":[42,39,9,0,0,0,0],"split_type":[0,0,0,0,0,0,0],"sum_hessian":[3.6493445E4,3.2764291E4,3.7291536E3,2.5369412E4,7.3948784E3,1.5795418E2,3.5711992E3],"tree_param":{"num_deleted":"0","num_feature":"49","num_nodes":"7","size_leaf_vector":"1"}},{"base_weights":[4.690124E-3,-2.5703214E-2,6.0558176E-1,-1.4238351E-2,9.460904E-3,6.960101E-2,2.4787294E-2],"categories":[],"categories_nodes":[],"categories_segments":[],"categories_sizes":[],"default_left":[0,0,0,0,0,0,0],"id":116,"left_children":[1,3,5,-1,-1,-1,-1],"loss_changes":[6.66662E2,8.6630237E2,1.5281183E2,0E0,0E0,0E0,0E0],"parents":[2147483647,0,0,1,1,2,2],"right_children":[2,4,6,-1,-1,-1,-1],"split_conditions":[1E0,1E0,-3.7828895E-1,-1.4238351E-2,9.460904E-3,6.960101E-2,2.4787294E-2],"split_indices":[45,47,10,0,0,0,0],"split_type":[0,0,0,0,0,0,0],"sum_hessian":[3.6484695E4,3.4737242E4,1.7474513E3,1.6691732E4,1.804551E4,7.935644E2,9.5388684E2],"tree_param":{"num_deleted":"0","num_feature":"49","num_nodes":"7","size_leaf_vector":"1"}},{"base_weights":[1.848096E-3,5.204783E-2,-3.3577597E-1,1.4717514E-2,-5.938356E-3,-2.7999373E-2,3.7711516E-3],"categories":[],"categories_nodes":[],"categories_segments":[],"categories_sizes":[],"default_left":[0,0,0,0,0,0,0],"id":117,"left_children":[1,3,5,-1,-1,-1,-1],"loss_changes":[6.180951E2,6.008542E2,6.861658E1,0E0,0E0,0E0,0E0],"parents":[2147483647,0,0,1,1,2,2],"right_children":[2,4,6,-1,-1,-1,-1],"split_conditions":[1E0,-4.5965248E-1,6.9207495E-1,1.4717514E-2,-5.938356E-3,-2.7999373E-2,3.7711516E-3],"split_indices":[33,1,4,0,0,0,0],"split_type":[0,0,0,0,0,0,0],"sum_hessian":[3.6448406E4,3.1737906E4,4.7105015E3,1.5119862E4,1.6618043E4,4.293258E3,4.172434E2],"tree_param":{"num_deleted":"0","num_feature":"49","num_nodes":"7","size_leaf_vector":"1"}},{"base_weights":[-4.2640083E-3,-1.7229265E-1,1.09543964E-1,2.9328773E-3,-1.8124634E-2,1.4677078E-3,2.3897033E-2],"categories":[],"categories_nodes":[],"categories_segments":[],"categories_sizes":[],"default_left":[0,0,0,0,0,0,0],"id":118,"left_children":[1,3,5,-1,-1,-1,-1],"loss_changes":[6.964431E2,2.1575385E2,4.0840622E2,0E0,0E0,0E0,0E0],"parents":[2147483647,0,0,1,1,2,2],"right_children":[2,4,6,-1,-1,-1,-1],"split_conditions":[1E0,-1.1186255E0,4.2376733E-1,2.9328773E-3,-1.8124634E-2,1.4677078E-3,2.3897033E-2],"split_indices":[13,1,6,0,0,0,0],"split_type":[0,0,0,0,0,0,0],"sum_hessian":[3.6399266E4,1.4696251E4,2.1703014E4,3.632084E3,1.1064167E4,1.5181088E4,6.521926E3],"tree_param":{"num_deleted":"0","num_feature":"49","num_nodes":"7","size_leaf_vector":"1"}},{"base_weights":[-5.2877553E-3,4.6443433E-2,-3.3006683E-1,4.9810754E-3,-5.4844186E-2,-3.1238623E-2,-9.659205E-3],"categories":[],"categories_nodes":[],"categories_segments":[],"categories_sizes":[],"default_left":[0,0,0,0,0,0,0],"id":119,"left_children":[1,3,5,-1,-1,-1,-1],"loss_changes":[6.111331E2,4.8782144E2,8.6423706E1,0E0,0E0,0E0,0E0],"parents":[2147483647,0,0,1,1,2,2],"right_children":[2,4,6,-1,-1,-1,-1],"split_conditions":[1E0,1E0,1E0,4.9810754E-3,-5.4844186E-2,-3.1238623E-2,-9.659205E-3],"split_indices":[16,37,25,0,0,0,0],"split_type":[0,0,0,0,0,0,0],"sum_hessian":[3.6355234E4,3.1367547E4,4.9876895E3,3.0591129E4,7.7641785E2,3.4816401E3,1.5060492E3],"tree_param":{"num_deleted":"0","num_feature":"49","num_nodes":"7","size_leaf_vector":"1"}},{"base_weights":[-4.2557893E-3,4.0361393E-2,-4.075504E-1,1.1332075E-2,-1.5620446E-2,-2.096568E-2,-4.311869E-2],"categories":[],"categories_nodes":[],"categories_segments":[],"categories_sizes":[],"default_left":[0,0,0,0,0,0,0],"id":120,"left_children":[1,3,5,-1,-1,-1,-1],"loss_changes":[6.5445245E2,9.01953E2,7.601141E1,0E0,0E0,0E0,0E0],"parents":[2147483647,0,0,1,1,2,2],"right_children":[2,4,6,-1,-1,-1,-1],"split_conditions":[1E0,1E0,8.818182E-1,1.1332075E-2,-1.5620446E-2,-2.096568E-2,-4.311869E-2],"split_indices":[42,40,2,0,0,0,0],"split_type":[0,0,0,0,0,0,0],"sum_hessian":[3.635172E4,3.2738771E4,3.6129478E3,2.2653578E4,1.0085193E4,2.0623103E3,1.5506375E3],"tree_param":{"num_deleted":"0","num_feature":"49","num_nodes":"7","size_leaf_vector":"1"}},{"base_weights":[-1.461182E-3,4.6184074E-2,-3.284758E-1,-4.3577724E-3,1.5227646E-2,-3.3584975E-2,-1.3991586E-2],"categories":[],"categories_nodes":[],"categories_segments":[],"categories_sizes":[],"default_left":[0,0,0,0,0,0,0],"id":121,"left_children":[1,3,5,-1,-1,-1,-1],"loss_changes":[5.652866E2,5.1812585E2,7.729834E1,0E0,0E0,0E0,0E0],"parents":[2147483647,0,0,1,1,2,2],"right_children":[2,4,6,-1,-1,-1,-1],"split_conditions":[1E0,1.8196002E-1,1.23199835E-1,-4.3577724E-3,1.5227646E-2,-3.3584975E-2,-1.3991586E-2],"split_indices":[33,6,6,0,0,0,0],"split_type":[0,0,0,0,0,0,0],"sum_hessian":[3.626148E4,3.1657625E4,4.6038535E3,1.9018705E4,1.263892E4,2.4893325E3,2.114521E3],"tree_param":{"num_deleted":"0","num_feature":"49","num_nodes":"7","size_leaf_vector":"1"}},{"base_weights":[-3.465714E-3,8.722202E-2,-1.9533919E-1,3.157025E-2,2.3113634E-3,8.971588E-3,-1.9922595E-2],"categories":[],"categories_nodes":[],"categories_segments":[],"categories_sizes":[],"default_left":[0,0,0,0,0,0,0],"id":122,"left_children":[1,3,5,-1,-1,-1,-1],"loss_changes":[6.3196246E2,4.6408475E2,2.583919E2,0E0,0E0,0E0,0E0],"parents":[2147483647,0,0,1,1,2,2],"right_children":[2,4,6,-1,-1,-1,-1],"split_conditions":[1E0,-6.535881E-1,-8.5714287E-1,3.157025E-2,2.3113634E-3,8.971588E-3,-1.9922595E-2],"split_indices":[14,9,11,0,0,0,0],"split_type":[0,0,0,0,0,0,0],"sum_hessian":[3.6298695E4,2.465237E4,1.1646325E4,3.5549277E3,2.1097441E4,2.1237583E3,9.522567E3],"tree_param":{"num_deleted":"0","num_feature":"49","num_nodes":"7","size_leaf_vector":"1"}},{"base_weights":[1.5802194E-3,4.969335E-2,-3.477503E-1,7.79435E-3,-2.1621274E-2,-3.8256466E-2,-1.0019006E-2],"categories":[],"categories_nodes":[],"categories_segments":[],"categories_sizes":[],"default_left":[0,0,0,0,0,0,0],"id":123,"left_children":[1,3,5,-1,-1,-1,-1],"loss_changes":[6.103169E2,5.852911E2,1.5214685E2,0E0,0E0,0E0,0E0],"parents":[2147483647,0,0,1,1,2,2],"right_children":[2,4,6,-1,-1,-1,-1],"split_conditions":[1E0,1E0,1E0,7.79435E-3,-2.1621274E-2,-3.8256466E-2,-1.0019006E-2],"split_indices":[23,16,47,0,0,0,0],"split_type":[0,0,0,0,0,0,0],"sum_hessian":[3.6292137E4,3.1906277E4,4.385859E3,2.750051E4,4.405768E3,2.4869414E3,1.8989177E3],"tree_param":{"num_deleted":"0","num_feature":"49","num_nodes":"7","size_leaf_vector":"1"}},{"base_weights":[3.318989E-3,-2.5047932E-2,5.445931E-1,-4.267478E-3,3.283351E-2,4.947174E-2,-1.1976992E-2],"categories":[],"categories_nodes":[],"categories_segments":[],"categories_sizes":[],"default_left":[0,0,0,0,0,0,0],